tree
version=v2
num_class=1
num_tree_per_iteration=1
label_index=0
max_feature_idx=29
objective=binary sigmoid:1
feature_names=having_IP_Address URL_Length Shortining_Service having_At_Symbol double_slash_redirecting Prefix_Suffix having_Sub_Domain SSLfinal_State Domain_registeration_length Favicon port HTTPS_token Request_URL URL_of_Anchor Links_in_tags SFH Submitting_to_email Abnormal_URL Redirect on_mouseover RightClick popUpWidnow Iframe age_of_domain DNSRecord web_traffic Page_Rank Google_Index Links_pointing_to_page Statistical_report
feature_infos=[-1:1] [-1:1] [-1:1] [-1:1] [-1:1] [-1:1] [-1:1] [-1:1] [-1:1] [-1:1] [-1:1] [-1:1] [-1:1] [-1:1] [-1:1] [-1:1] [-1:1] [-1:1] [-1:1] [-1:1] [-1:1] [-1:1] [-1:1] [-1:1] [-1:1] [-1:1] [-1:1] [-1:1] [-1:1] [-1:1]
tree_sizes=2619 2628 2631 2631 2639 2642 2640 2623 2650 2637 2651 2660 2638 2638 2664 2655 2667 2666 2673 2664 2673 2671 2666 2673 2657 2668 2666 2654 2677 2654 2656 2675 2630 2668 2669 2676 2665 2659 2669 2662 2664 2670 2672 2652 2675 2676 2660 2670 2658 2685 2657 2689 2681 2639 2675 2666 2654 2667 2661 2657 2645 2641 2638 2631 2658 2609 2655 2614 2631 2662 2661 2649 2624 2647 2650 2639 2631 2648 2677 2636 2664 2644 2644 2615 2662 2600 2660 2660 2583 2675 2641 2582 2657 2606 2646 2630 2635 2664 2637 2643 2638 2586 2603 2629 2637 2584 2676 2651 2656 2593 2621 2663 2629 2644 2580 2678 2652 2617 2639 2683 2652 2595 2606 2647 2647 2623 2590 2667 2662 2646 2671 2638 2613 2606 2676 2654 2588 2620 2569 2586 2567 2612 2543 2625 2647 2654 2611 2563 2634 2597 2596 2660 2569 2624 2606 2580 2621 2535 2582 2657 2570 2555 2606 2615 2505 2624 2629 2647 2609 2663 2621 2573 2615 2588 2612 2659 2572 2596 2590 2609 2576 2575 2570 2496 2631 2587 2596 2581 2636 2673 2530 2597 2599 2491 2473 2621 2477 2577 2584 2527 2600 2566 2541 2646 2629 2567 2630 2614 2600 2555 2539 2601 2565 2589 2574 2664 2573 2634 2563 2596 2574 2504 2512 2558 2634 2650 2611 2586 2616 2577 2613 2559 2558 2658 2606 2578 2623 2514 2599 2613 2536 2563 2642 2578 2611 2619 2598 2635 2516 2665 2509 2523 2515 2595 2679 2574 2577 2527 2522 2591 2594 2500 2529 2618 2585 2543 2608 2511 2493 2571 2517 2490 2624 2555 2596 2541 2511 2584 2565 2456 2476 2508 2465 2596 2602 2445 2532 2530 2567 2561 2567 2465 2603 2519 2557 2450 2519 2505 2555 2611 2473 2416 2565 2496 2500 2570 2440 2635 2482 2597 2565 2609 2546 2510 2510 2503 2491 2504 2396 2377 2576 2572 2501 2521 2539 2578 2482 2594 2533 2507 2545 2471 2470 2436 2534 2632 2483 2533 2510 2495 2522 2449 2638 2565 2623 2537 2499 2457 2513 2506 2583 2423 2613 2485 2472 2424 2486 2545 2479 2455 2561 2468 2506 2384 2522 2429 2639 2457 2468 2463 2548 2626 2481 2576 2413 2470 2483 2375 2403 2440 2444 2525 2342 2542 2539 2462 2558 2518 2590 2565 2545 2518 2485 2566 2529 2570 2533 2586 2514 2566 2550 2460 2546 2417 2632 2515 2479 2461 2565 2507 2572 2606 2409 2482 2429 2592 2576 2482 2573 2523 2486 2414 2582 2450 2403 2499 2535 2553 2553 2520 2445 2471 2558 2480 2568 2569 2560 2554 2524 2477 2439 2580 2425 2551 2456 2532 2455 2600 2566 2464 2504 2439 2611 2456 2470 2493 2492 2432 2559 2439 2530 2503 2595 2349 2489 2461 2392 2572 2514 2417 2422 2473 2555 2419 2478 2460 2434 2610 2556 2533 2492 2525 2484 2508 2463 2546 2470 2465 2503 2431 2431 2582 2484 2428 2501 2449 2475 2457 2556 2433 2432 2475 2495 2484 2513 2464 2493 2544 2442 2425 2505 2588 2546 2514 2528 2470 2507 2572 2590 2542 2517 2534 2512 2570 2510 2482 2408 2538 2431 2392 2516 2460 2539 2540 2498 2478 2546 2502 2543 2444 2530 2573 2568 2425 2377 2455 2468 2411 2432 2535 2464 2540 2453 2454 2408 2487 2528 2564 2577 2369 2439 2355 2496 2480 2466 2562 2433 2551 2428 2441 2358 2467 2459 2491 2452 2443 2514 2337 2466 2518 2590 2415 2403 2483 2492 2641 2521 2434 2641 2430 2411 2472 2483 2478 2458 2561 2496 2433 2369 2524 2498 2516 2475 2550 2519 2512 2480 2461 2472 2482 2473 2505 2468 2448 2435 2368 2491 2521 2466 2407 2410 2439 2492 2511 2511 2470 2403 2386 2395 2401 2466 2377 2421 2550 2533 2532 2377 2507 2524 2462 2413 2388 2462 2511 2492 2484 2489 2421 2586 2468 2466 2460 2530 2565 2443 2559 2429 2518 2521 2553 2477 2466 2582 2488 2527 2502 2475 2456 2507 2393 2398 2478 2495 2513 2439 2480 2448 2538 2374 2373 2464 2505 2486 2540 2417 2377 2490 2439 2435 2441 2454 2509 2469 2510 2564 2560 2531 2467 2518 2486 2411 2529 2502 2467 2508 2522 2459 2392 2486 2536 2488 2373 2506 2561 2491 2436 2500 2357 2471 2221 1832 2476 2429 2369 2479 2489 2525 2474 1628 1481 1454 1087 2573 2540 2461 2489 2634 2526 2353 2506 2474 2523 2480 2253 2489 2575 2396 2454 2627 2630 2447 2445 2525 2506 1470 2496 2564 2537 2597 2558 2548 2521 2563 2661 2599 2540 2371 2438 2511 1547 1637 2338 2410 2118 2454 2110 2462 2495 1962 2260 2614 2522 1753 2180 2461 2483 579 1058 1329 2491 2144 2445 2454 2477 2497 2445 2645 1560 1706 2598 2650 2352 2434 2477 2334 2368 2522 2456 2479 2481 2493 2506 1105 961 2431 2208 2102 2467 425 835 594 976 1633 1304 2086 807 654 522 592 593 1507 1126 2070 2526 2510 1350 2468 2525 2515 2449 2383 2453 2414 2463 2426 2417 2409 2139 2470 2343 2549 2311 2428 2505 1770 1772

Tree=0
num_leaves=31
num_cat=0
split_feature=7 20 13 21 1 20 10 13 6 5 14 13 5 25 25 13 6 13 5 10 10 1 5 1 6 13 8 2 5 14
split_gain=14014.9 1380.48 1299.93 868.88 634.727 2089.07 473.084 436.898 412.698 288.228 232.808 154.065 130.766 129.985 247.392 180.083 181.693 116.583 112.36 92.6889 203.12 87.3995 75.4648 69.1179 64.0745 58.816 54.798 54.2124 52.0098 50.3759
threshold=1.0000000180025095e-35 1.0000000180025095e-35 -1.0000000180025095e-35 -1.0000000180025095e-35 -1.0000000180025095e-35 1.0000000180025095e-35 -1.0000000180025095e-35 -1.0000000180025095e-35 1.0000000180025095e-35 1.0000000180025095e-35 -1.0000000180025095e-35 -1.0000000180025095e-35 -1.0000000180025095e-35 1.0000000180025095e-35 -1.0000000180025095e-35 1.0000000180025095e-35 1.0000000180025095e-35 1.0000000180025095e-35 1.0000000180025095e-35 1.0000000180025095e-35 -1.0000000180025095e-35 1.0000000180025095e-35 1.0000000180025095e-35 1.0000000180025095e-35 -1.0000000180025095e-35 1.0000000180025095e-35 1.0000000180025095e-35 1.0000000180025095e-35 1.0000000180025095e-35 -1.0000000180025095e-35
decision_type=2 2 2 2 2 2 2 2 2 2 2 2 2 2 2 2 2 2 2 2 2 2 2 2 2 2 2 2 2 2
left_child=4 3 18 -2 5 6 -1 -7 11 -8 22 19 25 14 -4 16 28 27 -3 20 -6 -10 -9 -21 -11 -5 -19 -12 -16 -13
right_child=1 2 13 12 8 7 9 10 21 24 17 29 -14 -15 15 -17 -18 26 -20 23 -22 -23 -24 -25 -26 -27 -28 -29 -30 -31
leaf_value=-0.61893912179219324 -0.33574095298783496 -0.59654896352031195 -0.32762603862262651 -0.45581083192591404 -0.61827450924282013 -0.61747427151020662 -0.36778368729661082 -0.58608522888627346 -0.39450709953501906 -0.4822552682537749 -0.35382303312603725 -0.57957454288497723 -0.61376945478286182 -0.33514474268229077 -0.51036744934717282 -0.32226470686532033 -0.38658032968365091 -0.37825473945273608 -0.47027442109756096 -0.58409155244642463 -0.32293612194332577 -0.52111621779573547 -0.34771453402594904 -0.60747363833243362 -0.41076311700663171 -0.61707125645735383 -0.57751432224680033 -0.52438334580031665 -0.35026303823471294 -0.44581485701100471
leaf_count=277 417 449 1434 196 124 3947 1185 1193 128 1071 41 86 758 6626 521 375 681 227 217 3799 80 1033 28 9235 351 62 32 739 46 183
internal_value=0 1.84115 2.10414 -0.0566688 -0.91302 -0.483961 0.967644 -1.15877 -1.1788 1.24069 -0.433561 -1.28034 -1.08811 2.2961 1.9406 1.38564 1.00588 0.283199 -0.683582 -1.3118 0.0591971 0.000637339 -1.04523 -1.33342 0.611817 0.17413 1.48401 -0.1128 0.138417 0.25997
internal_count=35541 11782 10349 1433 23759 9091 2884 6207 14668 2607 2260 13507 1016 9683 3057 1623 1248 1039 666 13238 204 1161 1221 13034 1422 258 259 780 567 269
shrinkage=1


Tree=1
num_leaves=31
num_cat=0
split_feature=7 20 13 21 1 20 10 13 6 5 14 13 5 14 5 13 15 13 10 10 23 1 5 1 12 6 6 13 25 25
split_gain=11968.9 1124.37 1062.13 738.034 574.599 1832.88 406.298 401.818 374.48 234.562 205.958 139.28 118.516 105.659 99.9806 98.0415 85.8559 106.227 83.6799 173.287 74.3199 73.8262 65.3966 64.6878 63.2827 58.412 51.6463 51.6288 51.0269 97.9524
threshold=1.0000000180025095e-35 1.0000000180025095e-35 -1.0000000180025095e-35 -1.0000000180025095e-35 -1.0000000180025095e-35 1.0000000180025095e-35 -1.0000000180025095e-35 -1.0000000180025095e-35 1.0000000180025095e-35 1.0000000180025095e-35 -1.0000000180025095e-35 -1.0000000180025095e-35 -1.0000000180025095e-35 -1.0000000180025095e-35 1.0000000180025095e-35 1.0000000180025095e-35 -1.0000000180025095e-35 1.0000000180025095e-35 1.0000000180025095e-35 -1.0000000180025095e-35 1.0000000180025095e-35 1.0000000180025095e-35 1.0000000180025095e-35 1.0000000180025095e-35 1.0000000180025095e-35 1.0000000180025095e-35 -1.0000000180025095e-35 1.0000000180025095e-35 1.0000000180025095e-35 -1.0000000180025095e-35
decision_type=2 2 2 2 2 2 2 2 2 2 2 2 2 2 2 2 2 2 2 2 2 2 2 2 2 2 2 2 2 2
left_child=4 3 14 -2 5 6 -1 -7 11 -8 22 18 27 16 -3 -12 17 20 19 -6 24 -10 -9 -20 26 -11 -4 -5 29 -15
right_child=1 2 13 12 8 7 9 10 21 25 15 -13 -14 28 -16 -17 -18 -19 23 -21 -22 -23 -24 -25 -26 -27 -28 -29 -30 -31
leaf_value=-0.10714069323686533 0.15377181078044802 -0.085063605876976173 -0.1086184271560211 0.04731176268070382 -0.1064807315791986 -0.10568647610446666 0.12578684637349333 -0.074853756594048138 0.10223341690312973 0.031977102955095142 -0.0073592756134091544 0.016784902577536318 -0.10201478726057997 0.16269499599880638 0.034146091215117379 0.094303989827557125 0.16023707768402387 0.15146929127717798 -0.072915995766851149 0.16488636418969405 0.10961709400237717 -0.012866724767007728 0.14334466676838564 -0.095795608637057522 0.077563832560159265 0.15620983975868763 0.034191403631507238 -0.10528663012355752 0.1612411951669375 0.10040097261520271
leaf_count=277 417 449 85 196 124 3947 1185 1193 128 1339 780 269 758 1133 217 259 746 600 3799 80 672 1033 28 9235 330 83 130 62 5017 970
internal_value=0 1.66512 1.89533 -0.054686 -0.865549 -0.456082 0.885812 -1.1033 -1.12221 1.1309 -0.407432 -1.2212 -1.03475 2.0623 -0.644698 0.261638 1.70478 1.46291 -1.25192 0.0520208 1.11287 0.000280005 -0.992163 -1.27295 0.546401 0.563119 -0.308248 0.160388 2.19046 1.91827
internal_count=35541 11782 10349 1433 23759 9091 2884 6207 14668 2607 2260 13507 1016 9683 666 1039 2563 1817 13238 204 1217 1161 1221 13034 545 1422 215 258 7120 2103
shrinkage=0.07


Tree=2
num_leaves=31
num_cat=0
split_feature=7 20 13 21 1 20 13 10 6 5 14 13 5 5 25 25 13 6 13 10 10 1 1 5 6 25 2 25 2 8
split_gain=10330.6 934.71 887.042 635.192 520.422 1615.09 372.384 351.41 341.383 195.612 182.679 126.724 107.919 89.2125 87.8816 170.696 137.379 143.367 83.158 75.4142 150.033 62.822 61.379 57.108 49.1586 48.0966 46.7094 46.2905 45.5997 45.0471
threshold=1.0000000180025095e-35 1.0000000180025095e-35 -1.0000000180025095e-35 -1.0000000180025095e-35 -1.0000000180025095e-35 1.0000000180025095e-35 -1.0000000180025095e-35 -1.0000000180025095e-35 1.0000000180025095e-35 1.0000000180025095e-35 -1.0000000180025095e-35 -1.0000000180025095e-35 -1.0000000180025095e-35 1.0000000180025095e-35 1.0000000180025095e-35 -1.0000000180025095e-35 1.0000000180025095e-35 1.0000000180025095e-35 1.0000000180025095e-35 1.0000000180025095e-35 -1.0000000180025095e-35 1.0000000180025095e-35 1.0000000180025095e-35 1.0000000180025095e-35 -1.0000000180025095e-35 -1.0000000180025095e-35 1.0000000180025095e-35 1.0000000180025095e-35 1.0000000180025095e-35 1.0000000180025095e-35
decision_type=2 2 2 2 2 2 2 2 2 2 2 2 2 2 2 2 2 2 2 2 2 2 2 2 2 2 2 2 2 2
left_child=4 3 13 -2 5 7 -7 -1 11 -9 23 19 27 -3 15 -4 17 -17 28 20 -6 -10 -21 -8 -11 -15 -26 -5 -12 -20
right_child=1 2 14 12 8 6 10 9 21 24 18 -13 -14 25 -16 16 -18 -19 29 22 -22 -23 -24 -25 26 -27 -28 -29 -30 -31
leaf_value=-0.10329112649477719 0.14009115297537592 -0.081294433272715155 0.1468607591465444 0.063133837471675586 -0.10262711609275836 -0.10182854677220843 -0.071264618499470384 0.11468923708140129 0.093374556029781369 0.020774077186047589 0.13870684949435111 0.015546212680863583 -0.098144545733559185 -0.030488876364474494 0.14078389614694195 0.0029881692985717499 0.15445065883241288 0.10014510880385982 0.10824050186309801 -0.069370644382300867 0.15022475855698098 -0.012007309896186239 -0.091932768030714762 0.13061066556567708 -0.036154906304011851 0.10416122282873448 0.10498341847828832 -0.060473400272310233 -0.015444537650184746 -0.071457493501483157
leaf_count=277 417 449 1434 147 124 3947 1193 1185 128 1071 41 269 758 116 6626 567 375 681 227 3799 80 1033 9235 28 55 101 296 111 739 32
internal_value=0 1.52604 1.73166 -0.0527574 -0.822882 -0.431259 -1.05361 0.815755 -1.07102 1.03735 -0.383256 -1.16797 -0.987179 -0.6091 1.88043 1.5939 1.13889 0.80984 0.242279 -1.19814 0.0464067 7.02471e-06 -1.21854 -0.943556 0.519286 0.450086 1.17941 0.147997 -0.0979627 1.23154
internal_count=35541 11782 10349 1433 23759 9091 6207 2884 14668 2607 2260 13507 1016 666 9683 3057 1623 1248 1039 13238 204 1161 13034 1221 1422 217 351 258 780 259
shrinkage=0.07


Tree=3
num_leaves=31
num_cat=0
split_feature=7 20 13 21 1 20 13 6 10 5 14 13 5 14 5 13 15 13 10 10 1 23 1 12 5 6 6 14 13 23
split_gain=8989.98 789.671 753.484 551.949 471.249 1428.54 346.84 312.417 305.724 166.202 162.242 115.749 98.7854 83.6983 79.6656 71.0667 68.2343 81.8651 67.8661 131.336 58.8817 57.7542 53.7652 52.97 50.1462 45.0691 43.5875 43.1951 43.0623 40.9368
threshold=1.0000000180025095e-35 1.0000000180025095e-35 -1.0000000180025095e-35 -1.0000000180025095e-35 -1.0000000180025095e-35 1.0000000180025095e-35 -1.0000000180025095e-35 1.0000000180025095e-35 -1.0000000180025095e-35 1.0000000180025095e-35 -1.0000000180025095e-35 -1.0000000180025095e-35 -1.0000000180025095e-35 -1.0000000180025095e-35 1.0000000180025095e-35 1.0000000180025095e-35 -1.0000000180025095e-35 1.0000000180025095e-35 1.0000000180025095e-35 -1.0000000180025095e-35 1.0000000180025095e-35 1.0000000180025095e-35 1.0000000180025095e-35 1.0000000180025095e-35 1.0000000180025095e-35 -1.0000000180025095e-35 1.0000000180025095e-35 -1.0000000180025095e-35 1.0000000180025095e-35 1.0000000180025095e-35
decision_type=2 2 2 2 2 2 2 2 2 2 2 2 2 2 2 2 2 2 2 2 2 2 2 2 2 2 2 2 2 2
left_child=4 3 14 -2 5 8 -7 11 -1 -10 24 18 28 16 -3 -12 17 21 19 -6 -20 23 -9 25 -8 -4 -11 -13 -5 -16
right_child=1 2 13 12 7 6 10 22 9 26 15 27 -14 -15 29 -17 -18 -19 20 -21 -22 -23 -24 -25 -26 -27 -28 -29 -30 -31
leaf_value=-0.099945236259351811 0.12922267992666178 -0.077841828106714861 -0.10821960413061986 0.041568815396711443 -0.09926991880224946 -0.098458440510880443 -0.067936043263509105 0.08581412385731263 0.10549458856995289 0.027105218721220164 -0.0063892218017626923 -0.070182220150031754 -0.094724596076888976 0.12930911733305958 -0.067843064423615013 0.079384521403268613 0.13536418941578149 0.12694084020758065 -0.066076815851477996 0.13879986903466834 -0.088464168215340575 0.09066062399317136 -0.011203527914035519 0.063822968236796479 0.12032430431185376 0.024854505074966629 0.1326352518030515 0.053721538464471454 -0.10016933998524864 0.068821154808055382
leaf_count=277 417 449 85 196 124 3947 1193 128 1185 1339 780 86 758 7120 62 259 746 600 3799 80 9235 672 1033 330 28 130 83 183 62 155
internal_value=0 1.41315 1.59976 -0.0508834 -0.784246 -0.409078 -1.00897 -1.02427 0.754862 0.956417 -0.361225 -1.11957 -0.943758 1.7348 -0.576825 0.224856 1.42026 1.20669 -1.14932 0.0418599 -1.16908 0.902039 0 0.405569 -0.898655 -0.375749 0.47968 0.205786 0.136596 0.414988
internal_count=35541 11782 10349 1433 23759 9091 6207 14668 2884 2607 2260 13507 1016 9683 666 1039 2563 1817 13238 204 13034 1217 1161 545 1221 215 1422 269 258 217
shrinkage=0.07


Tree=4
num_leaves=31
num_cat=0
split_feature=7 20 13 21 1 20 13 6 10 14 5 13 5 25 25 13 6 5 6 8 10 10 1 0 1 5 5 25 6 13
split_gain=7869.62 674.345 647.657 483.31 427.158 1267.04 325.007 286.851 267.262 144.337 143.306 105.757 90.6629 76.0024 146.346 114.813 117.348 71.2832 67.6292 68.9641 60.9945 115.952 56.9754 52.4885 53.7728 44.2134 41.1695 40.9726 38.9018 38.1482
threshold=1.0000000180025095e-35 1.0000000180025095e-35 -1.0000000180025095e-35 -1.0000000180025095e-35 -1.0000000180025095e-35 1.0000000180025095e-35 -1.0000000180025095e-35 1.0000000180025095e-35 -1.0000000180025095e-35 -1.0000000180025095e-35 1.0000000180025095e-35 -1.0000000180025095e-35 -1.0000000180025095e-35 1.0000000180025095e-35 -1.0000000180025095e-35 1.0000000180025095e-35 1.0000000180025095e-35 1.0000000180025095e-35 -1.0000000180025095e-35 1.0000000180025095e-35 1.0000000180025095e-35 -1.0000000180025095e-35 1.0000000180025095e-35 -1.0000000180025095e-35 1.0000000180025095e-35 1.0000000180025095e-35 1.0000000180025095e-35 -1.0000000180025095e-35 -1.0000000180025095e-35 1.0000000180025095e-35
decision_type=2 2 2 2 2 2 2 2 2 2 2 2 2 2 2 2 2 2 2 2 2 2 2 2 2 2 2 2 2 2
left_child=4 3 17 -2 5 8 -7 11 -1 25 -10 20 29 14 -4 16 26 -3 -11 -20 21 -6 -22 -9 -25 -8 -16 -19 -12 -5
right_child=1 2 13 12 7 6 9 23 10 18 28 -13 -14 -15 15 -17 -18 27 19 -21 22 -23 -24 24 -26 -27 -28 -29 -30 -31
leaf_value=-0.097015032383113972 0.12035402318914931 -0.074651420009595168 0.12710025548109485 0.03836176260760258 -0.096322123722917652 -0.095490332523650939 -0.064827532461608842 -0.081846935445398061 0.097707254726741646 -0.042611496957186225 0.017231197127533574 0.013317477580194302 -0.09167467971826343 0.12146678484758654 -0.015094290331676585 0.13332171287416136 0.083344776442564827 -0.030729628473009585 0.070911590283776485 -0.020752077633987103 -0.062996369833068791 0.12964927368101586 -0.085319167808118698 0.10116129133571043 -0.00055075463100817679 0.11180161168884417 0.12354827937581724 0.092799043653404231 0.071819265249551151 -0.096946747687006646
leaf_count=277 417 449 1434 196 124 3947 1193 144 1185 304 1071 269 758 6626 521 375 681 116 469 266 3799 80 9235 116 901 28 46 101 351 62
internal_value=0 1.3185 1.48965 -0.04915 -0.748804 -0.388808 -0.967988 -0.981256 0.701158 -0.340475 0.885299 -1.07524 -0.904547 1.61387 1.34891 0.931892 0.634551 -0.546793 0.208761 0.54577 -1.10459 0.0380709 -1.12368 0 0.166853 -0.856867 -0.0477253 0.3829 0.44378 0.126244
internal_count=35541 11782 10349 1433 23759 9091 6207 14668 2884 2260 2607 13507 1016 9683 3057 1623 1248 666 1039 735 13238 204 13034 1161 1017 1221 567 217 1422 258
shrinkage=0.07


Tree=5
num_leaves=31
num_cat=0
split_feature=7 20 13 21 1 20 13 6 10 14 5 13 5 14 5 6 6 8 5 20 9 15 28 0 1 5 8 25 23 25
split_gain=6925.95 582.066 562.663 425.725 387.242 1126.45 305.864 263.823 234.595 128.455 125.001 97.1754 83.4556 72.7058 63.8743 59.8556 58.5029 58.8403 58.2622 117.659 111.77 53.8203 53.5421 46.3396 46.3417 39.1027 37.8527 35.6112 35.506 42.4281
threshold=1.0000000180025095e-35 1.0000000180025095e-35 -1.0000000180025095e-35 -1.0000000180025095e-35 -1.0000000180025095e-35 1.0000000180025095e-35 -1.0000000180025095e-35 1.0000000180025095e-35 -1.0000000180025095e-35 -1.0000000180025095e-35 1.0000000180025095e-35 -1.0000000180025095e-35 -1.0000000180025095e-35 -1.0000000180025095e-35 1.0000000180025095e-35 1.0000000180025095e-35 -1.0000000180025095e-35 1.0000000180025095e-35 1.0000000180025095e-35 1.0000000180025095e-35 -1.0000000180025095e-35 -1.0000000180025095e-35 1.0000000180025095e-35 -1.0000000180025095e-35 1.0000000180025095e-35 1.0000000180025095e-35 -1.0000000180025095e-35 1.0000000180025095e-35 1.0000000180025095e-35 -1.0000000180025095e-35
decision_type=2 2 2 2 2 2 2 2 2 2 2 2 2 2 2 2 2 2 2 2 2 2 2 2 2 2 2 2 2 2
left_child=4 3 14 -2 5 8 -7 11 -1 25 -10 18 27 15 -3 21 -11 -18 19 20 -6 22 -4 -9 -25 -8 -13 -5 -16 -30
right_child=1 2 13 12 7 6 9 23 10 16 -12 26 -14 -15 28 -17 17 -19 -20 -21 -22 -23 -24 24 -26 -27 -28 -29 29 -31
leaf_value=-0.094431731180301806 0.11295764763908166 -0.071679766916847618 0.019359693967497576 0.053305133662993137 -0.03261541888771928 -0.092856896313382967 -0.061906633271511961 -0.077889359122196702 0.090989624214600009 -0.040060861990100775 0.028773149678268373 0.047463087294588487 -0.088931451442727141 0.11330331959625936 -0.066142930873337877 0.1074717824722161 0.0652230353226253 -0.019411555531605913 -0.078721264726267101 -0.094710521849060536 0.13434197656574071 0.11670157567599845 0.085282190211823511 0.093769014176913454 -0.00051227738609285593 0.10459049027015269 -0.070470566113547128 -0.056005510071085458 -0.0048563058320768068 0.14278142312256023
leaf_count=277 417 449 574 147 1014 3947 1193 144 1185 304 1422 189 758 7120 62 1252 469 266 11317 817 90 300 437 116 901 28 80 111 86 69
internal_value=0 1.23887 1.39751 -0.0475185 -0.716042 -0.370245 -0.930196 -0.941279 0.653241 -0.32119 0.822092 -1.03413 -0.868531 1.51314 -0.519113 1.2194 0.193512 0.504606 -1.06325 -0.703368 -0.237697 0.914122 0.687939 0 0.154962 -0.817719 0.176415 0.116765 0.354349 0.876244
internal_count=35541 11782 10349 1433 23759 9091 6207 14668 2884 2260 2607 13507 1016 9683 666 2563 1039 735 13238 1921 1104 1311 1011 1161 1017 1221 269 258 217 155
shrinkage=0.07


Tree=6
num_leaves=31
num_cat=0
split_feature=7 20 13 21 1 20 13 6 10 14 5 13 5 25 25 13 6 5 5 20 9 13 0 1 1 26 5 6 3 5
split_gain=6115.37 505.354 491.743 376.679 351.183 1003.32 288.781 243.032 206.543 114.398 110.244 89.2564 77.1246 70.0323 134.349 104.649 97.1797 57.2184 54.2868 109.477 98.1718 53.9416 40.9857 40.166 36.7392 36.5366 36.1421 35.4411 35.094 34.6637
threshold=1.0000000180025095e-35 1.0000000180025095e-35 -1.0000000180025095e-35 -1.0000000180025095e-35 -1.0000000180025095e-35 1.0000000180025095e-35 -1.0000000180025095e-35 1.0000000180025095e-35 -1.0000000180025095e-35 -1.0000000180025095e-35 1.0000000180025095e-35 -1.0000000180025095e-35 -1.0000000180025095e-35 1.0000000180025095e-35 -1.0000000180025095e-35 1.0000000180025095e-35 1.0000000180025095e-35 1.0000000180025095e-35 1.0000000180025095e-35 1.0000000180025095e-35 -1.0000000180025095e-35 1.0000000180025095e-35 -1.0000000180025095e-35 1.0000000180025095e-35 1.0000000180025095e-35 1.0000000180025095e-35 1.0000000180025095e-35 1.0000000180025095e-35 -1.0000000180025095e-35 1.0000000180025095e-35
decision_type=2 2 2 2 2 2 2 2 2 2 2 2 2 2 2 2 2 2 2 2 2 2 2 2 2 2 2 2 2 2
left_child=4 3 17 -2 5 8 -7 11 -1 29 -10 18 -5 14 -4 16 26 -3 19 20 -6 -11 -9 -24 -20 -13 -16 28 -12 -8
right_child=1 2 13 12 7 6 9 22 10 21 27 25 -14 -15 15 -17 -18 -19 24 -21 -22 -23 23 -25 -26 -27 -28 -29 -30 -31
leaf_value=-0.092140718903834837 0.10667522009161678 -0.068891855386525147 0.11372808304367488 0.007559383597683586 -0.030781229784890944 -0.090504554826784184 -0.059147223167096898 -0.074257308972480174 0.085103742727938511 -0.0067601091636589165 0.16382255620303676 0.04472064928766923 -0.086444187369594166 0.10802475796161018 -0.019788578550813531 0.11992593157953156 0.069938455929083113 0.023002759032571977 -0.061908501034037826 -0.092216661707992545 0.12680118776937577 0.067807340826892465 0.087351180706989592 -0.00047649382531733984 -0.081922068352917016 -0.0728701871218565 0.10972700882542967 0.11579551102440656 0.017034841754099622 0.098379574087001834
leaf_count=277 417 449 1434 258 1014 3947 1193 144 1185 780 34 193 758 6626 521 375 681 217 3258 817 90 259 116 901 8059 76 46 83 1305 28
internal_value=0 1.16889 1.31679 -0.045928 -0.685511 -0.353054 -0.895209 -0.903878 0.609638 -0.303214 0.76479 -0.995752 -0.834602 1.4251 1.16938 0.771445 0.490583 -0.494074 -1.02463 -0.67271 -0.224186 0.179632 0 0.144019 -1.08515 0.163019 -0.126339 0.380527 0.298029 -0.780832
internal_count=35541 11782 10349 1433 23759 9091 6207 14668 2884 2260 2607 13507 1016 9683 3057 1623 1248 666 13238 1921 1104 1039 1161 1017 11317 269 567 1422 1339 1221
shrinkage=0.07


Tree=7
num_leaves=31
num_cat=0
split_feature=7 20 13 21 1 20 13 6 10 14 5 13 5 14 15 13 27 5 1 5 2 8 23 3 3 13 28 6 0 1
split_gain=5420.7 442.644 433.562 334.28 318.708 895.16 273.606 224.271 182.503 101.994 97.7029 82.1682 71.7188 67.5464 55.8061 65.9887 52.492 51.4741 51.2172 49.3605 48.1853 45.9027 44.5121 43.3399 106.255 42.9767 43.2257 40.3964 36.3034 34.9723
threshold=1.0000000180025095e-35 1.0000000180025095e-35 -1.0000000180025095e-35 -1.0000000180025095e-35 -1.0000000180025095e-35 1.0000000180025095e-35 -1.0000000180025095e-35 1.0000000180025095e-35 -1.0000000180025095e-35 -1.0000000180025095e-35 1.0000000180025095e-35 -1.0000000180025095e-35 -1.0000000180025095e-35 -1.0000000180025095e-35 -1.0000000180025095e-35 1.0000000180025095e-35 -1.0000000180025095e-35 1.0000000180025095e-35 1.0000000180025095e-35 1.0000000180025095e-35 1.0000000180025095e-35 1.0000000180025095e-35 1.0000000180025095e-35 1.0000000180025095e-35 -1.0000000180025095e-35 1.0000000180025095e-35 1.0000000180025095e-35 -1.0000000180025095e-35 -1.0000000180025095e-35 1.0000000180025095e-35
decision_type=2 2 2 2 2 2 2 2 2 2 2 2 2 2 2 2 2 2 2 2 2 2 2 2 2 2 2 2 2 2
left_child=4 3 17 -2 5 8 -7 11 -1 -8 -10 18 -5 14 15 19 20 -3 27 22 -11 25 -4 24 -20 26 -18 -6 -9 -30
right_child=1 2 13 12 7 6 9 28 10 16 -12 -13 -14 -15 -16 -17 21 -19 23 -21 -22 -23 -24 -25 -26 -27 -28 -29 29 -31
leaf_value=-0.090098053295594963 0.10125428428000934 -0.066259296502984663 -0 0.0070190773269266744 -0.066496385194211249 -0.088390013996339847 -0.052213091539168748 -0.07089615089788337 0.079877091939324199 0.10745349500808288 0.024723890970739539 0.010544018308278863 -0.084171700029588348 0.10177720142528958 0.10784143087568496 0.10010016696167036 -0.018520357574560161 0.021316155774686586 -0.090753067870675691 0.11790777770575261 -0.08816395198356064 -0.015488894784926472 0.057859576729040657 -0.077635876087602265 0.1303492168037429 0.10605980693386957 0.089944838886204817 -0.032744736137829147 0.081697373454228131 -0.00044319513509991684
leaf_count=277 417 449 493 258 2368 3947 1221 144 1185 29 1422 269 758 7120 746 600 208 217 157 151 164 330 573 9201 74 190 118 1438 116 901
internal_value=0 1.10857 1.24768 -0.0442004 -0.657008 -0.337034 -0.862367 -0.868869 0.570485 -0.286138 0.713522 -0.959925 -0.801402 1.35025 1.06449 0.871197 0.167073 -0.468754 -0.98863 0.599532 -0.802322 0.388732 0.443344 -1.0833 -0.107849 0.762707 0.294331 -0.768326 0 0.13392
internal_count=35541 11782 10349 1433 23759 9091 6207 14668 2884 2260 2607 13507 1016 9683 2563 1817 1039 666 13238 1217 193 846 1066 9432 231 516 326 3806 1161 1017
shrinkage=0.07


Tree=8
num_leaves=31
num_cat=0
split_feature=7 20 13 21 1 20 13 6 10 14 5 13 5 25 25 13 6 5 20 9 5 27 2 8 13 28 1 14 6 8
split_gain=4814.01 388.986 383.738 297.539 288.945 799.707 259.602 207.027 161.6 90.5951 87.2774 75.9092 66.8312 66.3351 125.593 94.9015 83.8539 50.7017 102.415 76.568 46.3408 45.9366 42.5315 39.7317 37.7825 36.7749 35.4753 34.1155 32.7973 32.327
threshold=1.0000000180025095e-35 1.0000000180025095e-35 -1.0000000180025095e-35 -1.0000000180025095e-35 -1.0000000180025095e-35 1.0000000180025095e-35 -1.0000000180025095e-35 1.0000000180025095e-35 -1.0000000180025095e-35 -1.0000000180025095e-35 1.0000000180025095e-35 -1.0000000180025095e-35 -1.0000000180025095e-35 1.0000000180025095e-35 -1.0000000180025095e-35 1.0000000180025095e-35 1.0000000180025095e-35 1.0000000180025095e-35 1.0000000180025095e-35 -1.0000000180025095e-35 1.0000000180025095e-35 -1.0000000180025095e-35 1.0000000180025095e-35 1.0000000180025095e-35 1.0000000180025095e-35 1.0000000180025095e-35 1.0000000180025095e-35 -1.0000000180025095e-35 -1.0000000180025095e-35 1.0000000180025095e-35
decision_type=2 2 2 2 2 2 2 2 2 2 2 2 2 2 2 2 2 2 2 2 2 2 2 2 2 2 2 2 2 2
left_child=4 3 20 -2 5 8 -7 11 -1 -8 -10 17 -5 14 -4 16 -16 18 19 -6 -3 22 -11 24 25 -23 28 -13 -19 -9
right_child=1 2 13 12 7 6 9 29 10 21 -12 27 -14 -15 15 -17 -18 26 -20 -21 -22 23 -24 -25 -26 -27 -28 -29 -30 -31
leaf_value=-0.088267981475879498 0.096511575488019058 -0.063758919166204867 0.10389350731133314 0.0065182770287102116 -0.025326966361772427 -0.086477934149621002 -0.049752944373766095 0.0062106929434865782 0.075181736351677117 0.10016480050595405 0.022918153524476816 -0.066665910614491536 -0.082080155090367868 0.09804324589809453 -0.013260928636297624 0.10971261977453743 0.060193817905220562 -0.069365321723915005 -0.088274267694505734 0.11651788738799415 0.019762991101526479 -0.017303249764256422 -0.084025561509239899 -0.014472596758582172 0.099347777716142865 0.082297608291647811 -0.077229400051948796 0.043950193382157041 -0.035780208181759907 -0.095642365631383439
leaf_count=277 417 449 1434 258 1014 3947 1221 1089 1185 29 1422 86 758 6626 567 375 681 2061 817 90 217 208 164 330 190 118 8059 183 1197 72
internal_value=0 1.05402 1.18528 -0.0425495 -0.630018 -0.322066 -0.83172 -0.835464 0.534176 -0.270369 0.666165 -0.925739 -0.769992 1.28284 1.03068 0.64571 0.38099 -0.954352 -0.603936 -0.166252 -0.444799 0.155895 -0.761444 0.362096 0.709831 0.272175 -1.01529 0.13979 -0.813647 0
internal_count=35541 11782 10349 1433 23759 9091 6207 14668 2884 2260 2607 13507 1016 9683 3057 1623 1248 13238 1921 1104 666 1039 193 846 516 326 11317 269 3258 1161
shrinkage=0.07


Tree=9
num_leaves=31
num_cat=0
split_feature=7 27 27 13 1 20 13 6 10 5 5 13 13 5 14 1 25 27 25 25 13 6 26 27 27 6 7 25 6 2
split_gain=4286.8 352.72 314.148 292.427 261.917 715.317 246.665 192.159 143.436 83.1898 78.2929 73.3713 69.9397 64.4865 61.7209 50.1936 48.3693 44.6599 40.5312 91.3183 57.978 62.1172 36.9774 35.9641 90.4715 35.6198 34.156 33.2628 31.7359 36.7865
threshold=1.0000000180025095e-35 1.0000000180025095e-35 -1.0000000180025095e-35 -1.0000000180025095e-35 -1.0000000180025095e-35 1.0000000180025095e-35 -1.0000000180025095e-35 1.0000000180025095e-35 -1.0000000180025095e-35 -1.0000000180025095e-35 1.0000000180025095e-35 -1.0000000180025095e-35 -1.0000000180025095e-35 -1.0000000180025095e-35 -1.0000000180025095e-35 1.0000000180025095e-35 1.0000000180025095e-35 1.0000000180025095e-35 1.0000000180025095e-35 -1.0000000180025095e-35 1.0000000180025095e-35 1.0000000180025095e-35 1.0000000180025095e-35 1.0000000180025095e-35 -1.0000000180025095e-35 -1.0000000180025095e-35 -1.0000000180025095e-35 1.0000000180025095e-35 -1.0000000180025095e-35 1.0000000180025095e-35
decision_type=2 2 2 2 2 2 2 2 2 2 2 2 2 2 2 2 2 2 2 2 2 2 2 2 2 2 2 2 2 2
left_child=4 2 11 16 5 8 -7 12 -1 14 -10 -2 15 -4 -8 25 -3 -16 19 -5 21 -21 -11 24 -17 -6 -19 -13 -12 -30
right_child=1 3 13 18 7 6 9 -9 10 22 28 27 -14 -15 17 23 -18 26 -20 20 -22 -23 -24 -25 -26 -27 -28 -29 29 -31
leaf_value=-0.086621073409869964 -0.04530791900863268 -0.063543684070464193 0.0064136257956307983 0.10152453171781205 -0.061407886396565539 -0.084739093225084508 -0.052026014088870629 0 0.070920931657278391 0.12765466019912067 0.0089339861457510498 0.031777177061165757 0.009061629433617012 -0.087484298707387706 -0.067297474048195138 -0.087394416095429431 0.033604968610057823 0.023495768717893755 0.094989916317890499 -0.0023361530584059278 0.10358452457931638 0.063860434923018822 -0.024646964946261212 -0.073208713237715689 0.11953172056890904 -0.029002788878399452 -0.11190243386189611 0.087599746610632287 -0.046320754823367311 0.077631252198048867
leaf_count=277 143 358 211 1380 2368 3947 1193 1161 1185 109 1071 327 269 732 173 164 187 699 6154 507 338 642 45 9192 76 1438 41 803 55 296
internal_value=0 1.00589 0.209366 1.17446 -0.604497 -0.308003 -0.802894 -0.803718 0.500751 -0.25562 0.622735 0.848368 -0.893689 -0.858802 -0.378181 -0.922136 -0.416138 0.00637774 1.25899 1.05253 0.703598 0.489769 1.18357 -1.02077 -0.115278 -0.699521 0.225676 1.01811 0.303646 0.827385
internal_count=35541 11782 2216 9566 23759 9091 6207 14668 2884 2260 2607 1273 13507 943 2106 13238 545 913 9021 2867 1487 1149 154 9432 240 3806 740 1130 1422 351
shrinkage=0.07


Tree=10
num_leaves=31
num_cat=0
split_feature=7 27 27 13 1 20 13 6 10 5 5 5 20 13 13 20 5 14 25 14 27 13 25 11 1 15 5 26 2 0
split_gain=3820.93 314.485 279.426 262.175 237.004 640.146 235.098 178.392 127.673 72.6134 70.2727 66.0063 69.5751 65.013 61.9259 61.1468 60.3957 55.5219 42.9052 40.949 39.2155 34.605 36.1078 41.5588 34.5052 34.3449 37.1526 32.3486 31.2654 31.164
threshold=1.0000000180025095e-35 1.0000000180025095e-35 -1.0000000180025095e-35 -1.0000000180025095e-35 -1.0000000180025095e-35 1.0000000180025095e-35 -1.0000000180025095e-35 1.0000000180025095e-35 -1.0000000180025095e-35 -1.0000000180025095e-35 1.0000000180025095e-35 1.0000000180025095e-35 1.0000000180025095e-35 -1.0000000180025095e-35 -1.0000000180025095e-35 -1.0000000180025095e-35 -1.0000000180025095e-35 -1.0000000180025095e-35 1.0000000180025095e-35 -1.0000000180025095e-35 1.0000000180025095e-35 -1.0000000180025095e-35 1.0000000180025095e-35 1.0000000180025095e-35 1.0000000180025095e-35 -1.0000000180025095e-35 1.0000000180025095e-35 1.0000000180025095e-35 1.0000000180025095e-35 -1.0000000180025095e-35
decision_type=2 2 2 2 2 2 2 2 2 2 2 2 2 2 2 2 2 2 2 2 2 2 2 2 2 2 2 2 2 2
left_child=4 2 13 18 5 8 -7 11 -1 17 -10 12 15 -2 24 -6 -4 -8 -3 25 28 -14 -23 -24 -13 26 -5 -11 -19 -9
right_child=1 3 16 19 7 6 9 29 10 27 -12 14 21 -15 -16 -17 -18 20 -20 -21 -22 22 23 -25 -26 -27 -28 -29 -30 -31
leaf_value=-0.08513285570889853 -0.042850550928935222 -0.060653632837856415 0.0059577650374960153 0.043656907480053957 -0.020517898711695393 -0.083149124312157111 -0.049722578780832229 -0.066917706137821567 0.067020380688958478 0.11957349021452159 0.019761111478282477 -0.052461770770770952 -0.085037091077434138 0.067757418719682092 0.10564244748026866 0.096393331216616279 -0.0855022188637765 0.087866333903734717 0.030938249957367076 0.090382367424934384 0.014634558634695772 -0.087546283748664258 -0.10601503204557608 0.085832021532506006 -0.073089135496054905 0.09599465735760021 0.095750812307009686 -0.022979194789312322 -0.090340066159719609 0.0085450465845877382
leaf_count=277 143 358 211 1254 1016 3947 1193 144 1185 109 1422 3258 817 1130 41 112 732 22 187 6681 740 86 32 86 8059 687 399 45 151 1017
internal_value=0 0.961349 0.19962 1.12271 -0.580005 -0.294706 -0.774971 -0.77297 0.470309 -0.241441 0.583343 -0.86265 -0.485477 0.806092 -0.939379 -0.095694 -0.827163 -0.357275 -0.392216 1.2044 0.00539225 -0.945625 -0.211188 0.49885 -0.952648 0.962855 0.79985 1.10625 -0.911623 0
internal_count=35541 11782 2216 9566 23759 9091 6207 14668 2884 2260 2607 13507 2149 1273 11358 1128 943 2106 545 9021 913 1021 204 118 11317 2340 1653 154 173 1161
shrinkage=0.07


Tree=11
num_leaves=31
num_cat=0
split_feature=7 27 27 13 1 20 13 6 10 14 5 25 5 20 13 13 20 25 25 13 6 25 6 12 1 26 13 8 25 13
split_gain=3406.98 280.927 248.409 235.213 214.842 573.259 224.213 165.556 113.793 63.6225 63.3793 62.2555 61.8959 64.239 57.5503 55.2182 53.9843 40.8807 91.1257 56.2484 55.5734 38.0805 36.696 36.4631 34.405 34.2091 33.1682 33.3095 32.3261 31.6259
threshold=1.0000000180025095e-35 1.0000000180025095e-35 -1.0000000180025095e-35 -1.0000000180025095e-35 -1.0000000180025095e-35 1.0000000180025095e-35 -1.0000000180025095e-35 1.0000000180025095e-35 -1.0000000180025095e-35 -1.0000000180025095e-35 1.0000000180025095e-35 1.0000000180025095e-35 1.0000000180025095e-35 1.0000000180025095e-35 -1.0000000180025095e-35 -1.0000000180025095e-35 -1.0000000180025095e-35 1.0000000180025095e-35 -1.0000000180025095e-35 1.0000000180025095e-35 1.0000000180025095e-35 1.0000000180025095e-35 -1.0000000180025095e-35 1.0000000180025095e-35 1.0000000180025095e-35 1.0000000180025095e-35 -1.0000000180025095e-35 1.0000000180025095e-35 1.0000000180025095e-35 -1.0000000180025095e-35
decision_type=2 2 2 2 2 2 2 2 2 2 2 2 2 2 2 2 2 2 2 2 2 2 2 2 2 2 2 2 2 2
left_child=4 2 14 21 5 8 -7 12 -1 -8 -10 -4 13 16 -2 24 -6 18 -5 20 -20 -3 -11 25 -14 -24 -15 -28 -16 -9
right_child=1 3 11 17 7 6 9 29 10 22 -12 -13 15 26 28 -17 -18 -19 19 -21 -22 -23 23 -25 -26 -27 27 -29 -30 -31
leaf_value=-0.083782814969400168 -0.040518649181876337 -0.057906091913502468 0.0096092615686831102 0.094930146056824927 -0.019291221972789117 -0.0816874408982666 -0.04320077838652913 -0.0075790349764951999 0.063422244032577194 -0.03478131907891098 0.018342005580374399 -0.084539897400064623 -0.050217491962997615 -0.083486070748450478 0.025313524304430332 0.097340710524039781 0.091675502863806671 0.087816988581511407 -0.0074308076714183638 0.097018134482113064 0.055583869808483878 0.028516429450655491 0.016241347936695721 0.051086233257602365 -0.071148375586042589 -0.095775984603695213 0.022742765748236356 -0.10512761401221386 0.081055970127463337 0.076524826878739807
leaf_count=277 143 358 251 1380 1016 3947 1221 1053 1185 304 1422 692 3258 817 327 41 112 6154 507 338 642 187 204 451 8059 80 141 63 803 108
internal_value=0 0.91906 0.190092 1.07375 -0.556747 -0.281986 -0.748481 -0.743893 0.441558 -0.228089 0.546268 -0.79686 -0.833257 -0.463795 0.765217 -0.909451 -0.0898634 1.15275 0.941518 0.592531 0.384571 -0.369737 0.125365 0.370684 -0.92254 -0.21106 -0.917985 -0.199214 0.919427 0
internal_count=35541 11782 2216 9566 23759 9091 6207 14668 2884 2260 2607 943 13507 2149 1273 11358 1128 9021 2867 1487 1149 545 1039 735 11317 284 1021 204 1130 1161
shrinkage=0.07


Tree=12
num_leaves=31
num_cat=0
split_feature=7 27 27 13 1 20 13 6 10 5 3 13 5 20 25 13 6 13 20 14 14 6 1 15 5 25 27 13 6 25
split_gain=3043.33 252.716 220.908 212.141 194.728 513.182 214.473 153.881 101.609 61.2881 59.5875 62.6189 58.132 59.2432 57.8113 51.1352 51.0245 49.3687 47.7411 44.4156 41.0594 36.2802 34.29 33.8602 35.5886 33.8116 33.7951 31.9861 31.1888 30.7135
threshold=1.0000000180025095e-35 1.0000000180025095e-35 -1.0000000180025095e-35 -1.0000000180025095e-35 -1.0000000180025095e-35 1.0000000180025095e-35 -1.0000000180025095e-35 1.0000000180025095e-35 -1.0000000180025095e-35 -1.0000000180025095e-35 1.0000000180025095e-35 -1.0000000180025095e-35 1.0000000180025095e-35 1.0000000180025095e-35 1.0000000180025095e-35 -1.0000000180025095e-35 1.0000000180025095e-35 -1.0000000180025095e-35 -1.0000000180025095e-35 -1.0000000180025095e-35 -1.0000000180025095e-35 -1.0000000180025095e-35 1.0000000180025095e-35 -1.0000000180025095e-35 1.0000000180025095e-35 1.0000000180025095e-35 1.0000000180025095e-35 -1.0000000180025095e-35 -1.0000000180025095e-35 1.0000000180025095e-35
decision_type=2 2 2 2 2 2 2 2 2 2 2 2 2 2 2 2 2 2 2 2 2 2 2 2 2 2 2 2 2 2
left_child=4 2 15 25 5 8 -7 12 -1 19 11 -10 13 18 -4 -2 -12 22 -6 -8 23 -13 28 24 -5 -3 -21 -15 -14 -29
right_child=1 3 14 20 7 6 9 -9 10 -11 16 21 17 27 -16 -17 -18 -19 -20 26 -22 -23 -24 -25 -26 -27 -28 29 -30 -31
leaf_value=-0.082553613015344085 -0.03830334302295102 -0.055285096584602386 0.0089083042484202745 0.036776478734307977 -0.018128678933927157 -0.080336564243466094 -0.0455732667190131 -0 0.11122421295923299 0.072062190726689415 0.016474501529249952 0.067272561511963022 -0.06106452368241537 -0.08206342572188817 -0.082324428602426558 0.061328646567293463 0.098610622563750736 0.09021527199903405 0.087381158876109324 -0.061034638633192057 0.08382313416293713 -0.044434488754641066 -0.06929006119601247 0.089718069325262356 0.089156638030360766 0.026310796637673363 0.012888259191834384 -0.082007294977300138 -0.026694711236058894 0.032306638087812527
leaf_count=277 143 358 251 1254 1016 3947 1193 1161 392 154 1791 139 2061 817 692 1130 174 41 112 173 6681 111 8059 687 399 187 740 86 1197 118
internal_value=0 0.881189 0.181282 1.03045 -0.534223 -0.269704 -0.722352 -0.715701 0.414758 -0.215044 0.511842 1.06858 -0.804887 -0.442792 -0.764565 0.728534 0.337513 -0.880631 -0.0843429 -0.323834 1.1073 0.240475 -0.893527 0.860717 0.697861 -0.34856 0 -0.890753 -0.686506 -0.18652
internal_count=35541 11782 2216 9566 23759 9091 6207 14668 2884 2260 2607 642 13507 2149 943 1273 1965 11358 1128 2106 9021 250 11317 2340 1653 545 913 1021 3258 204
shrinkage=0.07


Tree=13
num_leaves=31
num_cat=0
split_feature=7 27 27 13 1 20 13 6 10 5 5 20 3 13 5 13 17 6 13 20 25 25 13 6 14 6 1 2 27 6
split_gain=2717.35 227.459 196.219 191.224 176.523 459.789 205.139 143.014 90.8934 56.0679 54.621 54.6488 54.0527 57.4442 53.5463 46.7853 51.1637 45.9432 44.2307 42.2774 41.4558 91.2537 54.7027 49.7284 39.9239 39.1744 34.0668 33.8593 43.0491 31.8343
threshold=1.0000000180025095e-35 1.0000000180025095e-35 -1.0000000180025095e-35 -1.0000000180025095e-35 -1.0000000180025095e-35 1.0000000180025095e-35 -1.0000000180025095e-35 1.0000000180025095e-35 -1.0000000180025095e-35 -1.0000000180025095e-35 1.0000000180025095e-35 1.0000000180025095e-35 1.0000000180025095e-35 -1.0000000180025095e-35 -1.0000000180025095e-35 1.0000000180025095e-35 1.0000000180025095e-35 1.0000000180025095e-35 -1.0000000180025095e-35 -1.0000000180025095e-35 1.0000000180025095e-35 -1.0000000180025095e-35 1.0000000180025095e-35 1.0000000180025095e-35 -1.0000000180025095e-35 1.0000000180025095e-35 1.0000000180025095e-35 1.0000000180025095e-35 1.0000000180025095e-35 -1.0000000180025095e-35
decision_type=2 2 2 2 2 2 2 2 2 2 2 2 2 2 2 2 2 2 2 2 2 2 2 2 2 2 2 2 2 2
left_child=4 2 15 -3 5 8 -7 10 -1 -4 11 19 13 -10 24 16 -2 -14 26 -6 21 -5 23 -23 -8 -18 -12 -26 -29 -15
right_child=1 3 9 20 7 6 14 -9 12 -11 18 -13 17 29 -16 -17 25 -19 -20 -21 -22 22 -24 -25 27 -27 -28 28 -30 -31
leaf_value=-0.081430464389050036 0.08179816962387372 -0.023000059358888752 0.0096702310448696892 0.089668881498376596 -0.017027667371245937 -0.079081515211177691 -0.043512863521905615 -0 0.1069392754561231 -0.080796008394371052 -0.045990252049266926 -0.060520352225519269 0.015323369949502947 0.063932693208948066 0.067432406086404315 0.087012439471634839 -0.036686972401427986 0.094200209942715885 0.08399950071346679 0.083436651313741533 0.081873381897970443 -0.011713023439876015 0.091822610144305053 0.048406858423529549 0.098893136636572759 0.046537168552346152 -0.06750054941624524 -0.084384067217396455 0.006026260082842955 -0.040862583062978096
leaf_count=277 261 545 211 1380 1016 3947 1193 1161 392 732 3258 1021 1791 139 154 480 304 174 41 112 6154 507 338 642 64 228 8059 151 698 111
internal_value=0 0.844412 0.172539 0.988464 -0.512576 -0.257883 -0.697371 -0.688555 0.389789 -0.733599 -0.77754 -0.422642 0.479845 1.01729 -0.202802 0.692393 0.366344 0.314798 -0.852866 -0.0791163 1.06318 0.845865 0.495894 0.293411 -0.30559 -0.0111132 -0.865558 -0 -0.114049 0.225004
internal_count=35541 11782 2216 9566 23759 9091 6207 14668 2884 943 13507 2149 2607 642 2260 1273 793 1965 11358 1128 9021 2867 1487 1149 2106 532 11317 913 849 250
shrinkage=0.07


Tree=14
num_leaves=31
num_cat=0
split_feature=7 27 27 13 1 20 1 13 13 10 6 6 20 25 5 5 8 13 17 14 14 6 6 15 5 12 6 5 25 13
split_gain=2430.19 205.293 174.86 173.538 160.855 219.943 224.466 192.607 129.326 81.4614 75.2611 71.038 56.5967 53.2063 52.2962 51.0219 47.6318 43.4961 45.9656 41.381 38.3623 34.1249 33.6447 33.5423 34.308 32.1502 32.7205 32.0503 30.3254 29.6523
threshold=1.0000000180025095e-35 1.0000000180025095e-35 -1.0000000180025095e-35 -1.0000000180025095e-35 1.0000000180025095e-35 1.0000000180025095e-35 -1.0000000180025095e-35 -1.0000000180025095e-35 -1.0000000180025095e-35 -1.0000000180025095e-35 1.0000000180025095e-35 1.0000000180025095e-35 1.0000000180025095e-35 1.0000000180025095e-35 -1.0000000180025095e-35 1.0000000180025095e-35 -1.0000000180025095e-35 1.0000000180025095e-35 1.0000000180025095e-35 -1.0000000180025095e-35 -1.0000000180025095e-35 1.0000000180025095e-35 -1.0000000180025095e-35 -1.0000000180025095e-35 1.0000000180025095e-35 1.0000000180025095e-35 -1.0000000180025095e-35 1.0000000180025095e-35 1.0000000180025095e-35 1.0000000180025095e-35
decision_type=2 2 2 2 2 2 2 2 2 2 2 2 2 2 2 2 2 2 2 2 2 2 2 2 2 2 2 2 2 2
left_child=4 2 17 28 5 6 9 -7 10 -1 -6 22 27 -4 20 -11 -10 18 -2 23 -9 -20 -8 24 29 -22 -27 -12 -3 -5
right_child=1 3 13 19 8 7 11 14 16 15 12 -13 -14 -15 -16 -17 -18 -19 21 -21 25 -23 -24 -25 -26 26 -28 -29 -30 -31
leaf_value=-0.080400679543317019 0.078398080628152608 -0.051731497402363789 0.010278222502880852 0.018394261920844156 -0.062270232933488726 -0.078159765439650405 -0.050596861409427603 -0.043559982823332379 0.063556481194006129 0.054976362453701681 0.082228088674049848 0.077053501935798227 -0.10096551283984108 -0.078962646748597862 0.064938152195281762 0.013938744381099603 -0.080476820615632425 0.084236393276093294 -0.034076738254565205 0.078283398923490316 -0.033094648872219835 0.043870295457667914 -0.017084943223939168 0.084547361194580145 0.083728711292551133 -0.03749720669103089 0.044145437957607433 -0.012034847694167527 0.026056308411657125 0.074604558149185235
leaf_count=277 261 358 251 956 9432 4009 2343 1227 262 1185 86 112 157 692 158 1422 63 480 304 6681 399 228 1414 687 399 148 375 690 187 298
internal_value=0 0.811361 0.164895 0.950794 -0.49159 -0.318888 -0.0509764 -0.685048 -0.735198 0.366589 -0.799191 -0.465129 -0.245114 -0.706527 -0.212657 0.450225 0.534478 0.659433 0.345501 1.02403 -0.314446 -0.00993298 -0.534974 0.771178 0.608038 -0.0127297 0.317461 -0.0204503 -0.308416 0.438793
internal_count=35541 11782 2216 9566 23759 13069 6753 6316 10690 2884 10365 3869 933 943 2307 2607 325 1273 793 9021 2149 532 3757 2340 1653 922 523 776 545 1254
shrinkage=0.07


Tree=15
num_leaves=31
num_cat=0
split_feature=7 27 13 27 1 20 1 13 13 10 6 6 5 20 3 13 5 25 25 13 6 25 6 8 14 5 13 5 28 26
split_gain=2172.31 185.236 157.039 155.622 147.193 200.271 197.805 184.37 116.818 73.0924 71.9056 62.6604 52.1451 51.475 47.1413 54.5009 45.8237 41.8584 90.7964 52.2466 44.2502 41.5385 41.468 41.3512 34.4359 31.5926 31.0737 30.2743 34.3549 29.9397
threshold=1.0000000180025095e-35 1.0000000180025095e-35 -1.0000000180025095e-35 -1.0000000180025095e-35 1.0000000180025095e-35 1.0000000180025095e-35 -1.0000000180025095e-35 -1.0000000180025095e-35 -1.0000000180025095e-35 -1.0000000180025095e-35 1.0000000180025095e-35 1.0000000180025095e-35 -1.0000000180025095e-35 1.0000000180025095e-35 1.0000000180025095e-35 -1.0000000180025095e-35 -1.0000000180025095e-35 1.0000000180025095e-35 -1.0000000180025095e-35 1.0000000180025095e-35 1.0000000180025095e-35 1.0000000180025095e-35 1.0000000180025095e-35 -1.0000000180025095e-35 -1.0000000180025095e-35 1.0000000180025095e-35 1.0000000180025095e-35 1.0000000180025095e-35 -1.0000000180025095e-35 1.0000000180025095e-35
decision_type=2 2 2 2 2 2 2 2 2 2 2 2 2 2 2 2 2 2 2 2 2 2 2 2 2 2 2 2 2 2
left_child=4 3 27 21 5 6 9 -7 10 -1 -6 25 -5 -12 15 -11 24 18 -4 20 -20 26 -16 -10 -9 -8 -2 28 -3 -18
right_child=1 2 17 12 8 7 11 16 23 14 13 -13 -14 -15 22 -17 29 -19 19 -21 -22 -23 -24 -25 -26 -27 -28 -29 -30 -31
leaf_value=-0.079453290338262039 -0.01916887126740386 0.13192586146925411 0.08532386764976542 0.010845498990463276 -0.060446299733426086 -0.077052663110595013 0.00193094000483739 -0.041586238311499928 0.058595414382074683 0.1017244605127942 -0.0013265528772359932 0.072506696970365631 -0.077957219152503685 -0.097886551053706042 0.012589383533655078 0.011268271280006108 0.10227208791076187 0.076785302936852318 -0.015037701537725517 0.087351594344398778 0.042235135534283159 0.064004620482102245 0.08897432639909722 -0.076927933081519961 -0.00084108840996875473 -0.042321674550562419 0.082342837999512725 0.027307892215236381 -0.065800580629870861 -0.035012960535246627
leaf_count=277 300 26 1380 211 9432 4009 499 1227 262 392 776 112 732 157 1791 250 113 6154 507 338 642 875 174 63 922 3258 98 169 350 45
internal_value=0 0.779072 0.914001 0.157491 -0.471301 -0.304546 -0.0483267 -0.661804 -0.708894 0.344549 -0.771981 -0.442441 -0.677625 -0.229885 0.422239 0.937288 -0.200924 0.985502 0.761961 0.412021 0.217036 0.628467 0.269624 0.495078 -0.29724 -0.509136 0.048449 -0.290571 -0.726131 0.870812
internal_count=35541 11782 9566 2216 23759 13069 6753 6316 10690 2884 10365 3869 943 933 2607 642 2307 9021 2867 1487 1149 1273 1965 325 2149 3757 398 545 376 158
shrinkage=0.07


Tree=16
num_leaves=31
num_cat=0
split_feature=7 27 13 27 1 20 13 1 13 6 10 6 25 20 5 14 13 5 8 27 26 15 5 6 26 15 11 2 5 5
split_gain=1943.61 168.272 142.496 138.445 134.748 182.149 176.763 174.371 105.521 68.5335 65.7096 55.3016 48.8632 46.9605 43.682 41.4291 41.086 40.2868 35.9917 33.8283 40.8437 33.0811 32.9938 31.7956 29.0658 34.0126 46.2137 28.3599 27.2128 26.9225
threshold=1.0000000180025095e-35 1.0000000180025095e-35 -1.0000000180025095e-35 -1.0000000180025095e-35 1.0000000180025095e-35 1.0000000180025095e-35 -1.0000000180025095e-35 -1.0000000180025095e-35 -1.0000000180025095e-35 1.0000000180025095e-35 -1.0000000180025095e-35 1.0000000180025095e-35 1.0000000180025095e-35 1.0000000180025095e-35 1.0000000180025095e-35 -1.0000000180025095e-35 -1.0000000180025095e-35 -1.0000000180025095e-35 -1.0000000180025095e-35 -1.0000000180025095e-35 1.0000000180025095e-35 -1.0000000180025095e-35 1.0000000180025095e-35 -1.0000000180025095e-35 1.0000000180025095e-35 -1.0000000180025095e-35 1.0000000180025095e-35 -1.0000000180025095e-35 1.0000000180025095e-35 1.0000000180025095e-35
decision_type=2 2 2 2 2 2 2 2 2 2 2 2 2 2 2 2 2 2 2 2 2 2 2 2 2 2 2 2 2 2
left_child=4 3 29 16 5 7 -7 10 9 -6 -1 23 -5 28 -12 21 -2 19 -10 -8 -21 22 -4 -9 25 26 -18 -25 -11 -3
right_child=1 2 15 12 8 6 17 11 18 13 14 -13 -14 -15 -16 -17 24 -19 -20 20 -22 -23 -24 27 -26 -27 -28 -29 -30 -31
leaf_value=-0.078578744081050422 -0.038326276396706181 -0.048689049580576113 0.025391376196443348 0.01136267953712549 -0.058658530144711576 -0.07600833248872399 -0.061922519009675853 -0.047110200151225197 0.05415027677406626 0.074939628748696002 0.050039363556037962 0.068367698016073536 -0.075855053888094201 -0.095169143008013782 0.011651181523673393 0.073453976946724314 0.089068826475950186 0.057726075208905055 -0.073628297682822974 0.0059525981553789692 -0.048046195495774463 0.080153736158781477 0.079120240189267568 -0.061310950778607785 0.082744598964306151 0.084049215975593589 -0.02362058893399082 -0.0014441502811817864 -0.011141761650431717 0.025279111999719755
leaf_count=277 143 376 1254 251 9432 4009 431 2343 262 86 1185 112 692 157 1422 6681 131 158 63 1207 511 687 399 293 477 209 313 1121 690 169
internal_value=0 0.749518 0.880839 0.15011 -0.451562 -0.290573 -0.63867 -0.045618 -0.683306 -0.745417 0.324166 -0.420636 -0.652219 -0.215701 0.396398 0.950809 0.597184 -0.189458 0.459486 -0.280122 -0.139982 0.691932 0.528698 -0.484264 0.741392 0.434518 0.0889425 -0.19865 -0.0176308 -0.27467
internal_count=35541 11782 9566 2216 23759 13069 6316 6753 10690 10365 2884 3869 943 933 2607 9021 1273 2307 325 2149 1718 2340 1653 3757 1130 653 444 1414 776 545
shrinkage=0.07


Tree=17
num_leaves=31
num_cat=0
split_feature=7 20 13 21 1 20 13 1 13 14 6 10 6 6 25 25 25 24 20 15 28 3 13 14 6 5 24 8 26 6
split_gain=1737.48 153.354 153.319 129.046 123.387 165.029 169.929 153.613 95.3065 65.7275 65.1333 59.1256 51.6211 48.8316 48.647 44.4468 67.7794 49.9278 42.9605 41.4959 43.0787 41.1429 52.2755 37.67 37.5706 36.9406 32.2362 31.3942 30.8107 29.2238
threshold=1.0000000180025095e-35 1.0000000180025095e-35 -1.0000000180025095e-35 -1.0000000180025095e-35 1.0000000180025095e-35 1.0000000180025095e-35 -1.0000000180025095e-35 -1.0000000180025095e-35 -1.0000000180025095e-35 -1.0000000180025095e-35 1.0000000180025095e-35 -1.0000000180025095e-35 1.0000000180025095e-35 1.0000000180025095e-35 1.0000000180025095e-35 1.0000000180025095e-35 -1.0000000180025095e-35 1.0000000180025095e-35 1.0000000180025095e-35 -1.0000000180025095e-35 1.0000000180025095e-35 1.0000000180025095e-35 -1.0000000180025095e-35 -1.0000000180025095e-35 1.0000000180025095e-35 1.0000000180025095e-35 1.0000000180025095e-35 -1.0000000180025095e-35 1.0000000180025095e-35 -1.0000000180025095e-35
decision_type=2 2 2 2 2 2 2 2 2 2 2 2 2 2 2 2 2 2 2 2 2 2 2 2 2 2 2 2 2 2
left_child=4 3 25 -2 5 7 -7 11 10 12 -6 -1 19 29 -5 16 -11 28 -12 20 -4 22 -13 -8 -23 -3 -27 -10 -18 -9
right_child=1 2 9 14 8 6 23 13 27 15 18 21 -14 -15 -16 -17 17 -19 -20 -21 -22 24 -24 -25 -26 26 -28 -29 -30 -31
leaf_value=-0.077768715376026976 0.071977360975499408 -0.052554104515082495 -0.02087028882696115 0.0094260139916836055 -0.056901179599692951 -0.075017908508914086 -0.03497237880152209 -0.045166358300488714 0.050139393333304874 0.081831881453905408 -0.0011412109164675079 0.097526695721564527 0.064708289332337937 0.064568907379876556 -0.072458594284031314 0.080033912600838114 -0.049923380245937711 0.045713873581876875 -0.092755691928237446 0.075950723000352022 0.043101758331614497 0.010260418883172995 0.0073070515408837702 0.0061947235866677292 0.084499297780806101 -0.048784817725287477 0.067263022211851237 -0.070539164412036101 0.094623559919898403 -0.013060528376163083
leaf_count=277 417 449 574 288 9432 4009 1255 2343 262 1133 776 392 1252 112 728 5017 238 693 157 300 437 1791 250 1052 174 77 140 63 39 1414
internal_value=0 0.72034 0.81449 -0.0615682 -0.432325 -0.277023 -0.615085 -0.0432668 -0.658393 0.89024 -0.719471 0.304655 0.580231 -0.399801 -0.594034 1.01392 0.730907 0.329865 -0.202439 0.274299 0.0772037 0.371808 0.865908 -0.177964 0.230669 -0.274281 0.36707 0.42712 -0.424851 -0.46042
internal_count=35541 11782 10349 1433 23759 13069 6316 6753 10690 9683 10365 2884 2563 3869 1016 7120 2103 970 933 1311 1011 2607 642 2307 1965 666 217 325 277 3757
shrinkage=0.07


Tree=18
num_leaves=31
num_cat=0
split_feature=7 27 13 1 20 13 1 27 13 6 10 5 6 25 25 13 20 24 3 13 13 17 15 2 5 6 25 6 15 3
split_gain=1555.1 142.232 117.897 112.927 149.477 163.286 135.365 110.224 86.0484 61.7751 53.3069 48.7904 44.188 41.9411 88.4486 51.3007 39.3884 39.3144 37.5417 48.926 36.8973 37.2881 34.8897 34.6468 34.5149 34.1329 33.2258 69.1398 38.4603 30.0254
threshold=1.0000000180025095e-35 1.0000000180025095e-35 -1.0000000180025095e-35 1.0000000180025095e-35 1.0000000180025095e-35 -1.0000000180025095e-35 -1.0000000180025095e-35 -1.0000000180025095e-35 -1.0000000180025095e-35 1.0000000180025095e-35 -1.0000000180025095e-35 -1.0000000180025095e-35 -1.0000000180025095e-35 1.0000000180025095e-35 -1.0000000180025095e-35 1.0000000180025095e-35 1.0000000180025095e-35 -1.0000000180025095e-35 1.0000000180025095e-35 -1.0000000180025095e-35 1.0000000180025095e-35 1.0000000180025095e-35 -1.0000000180025095e-35 -1.0000000180025095e-35 -1.0000000180025095e-35 1.0000000180025095e-35 1.0000000180025095e-35 1.0000000180025095e-35 -1.0000000180025095e-35 1.0000000180025095e-35
decision_type=2 2 2 2 2 2 2 2 2 2 2 2 2 2 2 2 2 2 2 2 2 2 2 2 2 2 2 2 2 2
left_child=3 7 -3 4 6 -6 10 20 9 29 -1 -9 -8 14 -4 17 -11 -16 19 -12 21 -2 -19 -14 26 -20 27 -7 -28 -5
right_child=1 2 13 8 5 24 12 11 -10 16 18 -13 23 -15 15 -17 -18 22 25 -21 -22 -23 -24 -25 -26 -27 28 -29 -30 -31
leaf_value=-0.077015842316009261 0.069744156678314073 -0.017307900688884714 0.080127810496565088 0.010482014382663123 -0.074073543205494308 -0.069938966797688629 -0.043275908357441363 0.013224506984316927 0.027826459295855373 -0.0010616659874062495 0.094990073676199799 -0.075200825729305323 -0.05798987461600582 0.070400791193197712 -0.035706029851770599 0.083175846253614724 -0.09059994932812411 0.011081948534791766 0.0095467592513029508 0.0068130818220691336 0.075954693580639068 -0.0051239210809949139 0.090981177168091995 0.0072833478391438082 0.054296434335736304 0.081453780890039407 -0.009202488276683506 0.024813475170868501 0.089421023593587529 -0.057174920594779959
leaf_count=277 261 545 1380 231 4009 702 2343 211 325 776 392 732 301 6154 314 338 157 672 1791 250 480 532 163 1225 158 174 1071 273 103 9201
internal_value=0 0.693839 0.819256 -0.413634 -0.263876 -0.592013 -0.0408243 0.127677 -0.634034 -0.694013 0.286711 -0.608667 -0.37966 0.886292 0.654912 0.310299 -0.19002 0.119851 0.349217 0.828904 0.537709 0.245693 0.364273 -0.0685892 -0.16704 0.215376 -0.252171 -0.577939 0.00191315 -0.788138
internal_count=35541 11782 9566 23759 13069 6316 6753 2216 10690 10365 2884 943 3869 9021 2867 1487 933 1149 2607 642 1273 793 835 1526 2307 1965 2149 975 1174 9432
shrinkage=0.07


Tree=19
num_leaves=31
num_cat=0
split_feature=7 27 13 1 17 17 13 27 20 6 6 1 18 27 26 5 26 6 25 25 13 13 17 24 13 14 23 15 25 6
split_gain=1390.7 129.133 107.58 103.347 136.375 131.311 126.893 98.1089 89.8928 80.5744 71.4163 54.6609 56.7423 47.1708 49.0466 45.4155 44.2889 40.4472 55.8264 46.7055 34.6704 34.5629 33.5689 33.4336 31.9313 27.9696 27.8052 27.6223 27.5264 26.7055
threshold=1.0000000180025095e-35 1.0000000180025095e-35 -1.0000000180025095e-35 1.0000000180025095e-35 1.0000000180025095e-35 -1.0000000180025095e-35 -1.0000000180025095e-35 -1.0000000180025095e-35 1.0000000180025095e-35 1.0000000180025095e-35 1.0000000180025095e-35 -1.0000000180025095e-35 -1.0000000180025095e-35 -1.0000000180025095e-35 -1.0000000180025095e-35 -1.0000000180025095e-35 1.0000000180025095e-35 1.0000000180025095e-35 1.0000000180025095e-35 -1.0000000180025095e-35 1.0000000180025095e-35 1.0000000180025095e-35 1.0000000180025095e-35 -1.0000000180025095e-35 -1.0000000180025095e-35 -1.0000000180025095e-35 -1.0000000180025095e-35 -1.0000000180025095e-35 1.0000000180025095e-35 1.0000000180025095e-35
decision_type=2 2 2 2 2 2 2 2 2 2 2 2 2 2 2 2 2 2 2 2 2 2 2 2 2 2 2 2 2 2
left_child=3 7 28 4 5 10 -6 21 24 16 11 12 -1 -8 -15 26 23 18 19 -4 -21 22 -2 -5 -7 -20 -9 -12 -3 -24
right_child=1 2 17 9 6 8 13 15 -10 -11 27 -13 -14 14 -16 -17 -18 -19 25 20 -22 -23 29 -25 -26 -27 -28 -29 -30 -31
leaf_value=0.0105241604042154 0.067063404542991575 -0.046629535580216312 0.067391751856991394 -0.056305861219646883 -0.072706584730035245 0.09154078371013169 -0.066866430517021846 0.077437392750313278 0.45110451425862963 -0.0047923060265864879 -0.022359626899520785 -0.030479343100458852 -0.060375139586530638 0.013744465555783935 -0.045189548790164735 -0.073780911728697787 -0.055217031917351646 0.071265929303533981 0.033984277537154002 -0.019060648145443594 0.080236800416016052 0.073941008758717203 -0.03440360238336599 0.021513728123752626 0.015726057106385551 0.070378344698841661 -0.03102587850986897 0.073407720669394355 0.0297061077606047 0.03628974384959463
leaf_count=1793 261 358 404 373 3654 340 435 82 24 1033 137 3782 585 1238 533 732 8878 4730 822 507 125 480 304 406 237 2433 129 311 187 228
internal_value=0 0.667584 0.789606 -0.395584 -0.251243 -0.0500375 -0.590434 0.121784 0.965669 -0.610446 -0.153112 -0.223467 0.0189921 -0.208485 -0.0499737 -0.585118 -0.721666 0.855689 0.685395 0.240433 -0.0709372 0.511479 0.230673 -0.123371 0.817828 0.858846 0.175223 0.738447 -0.23161 -0.068019
internal_count=35541 11782 9566 23759 13069 7209 5860 2216 601 10690 6608 6160 2378 2206 1771 943 9657 9021 4291 1036 632 1273 793 779 577 3255 211 448 545 532
shrinkage=0.07


Tree=20
num_leaves=31
num_cat=0
split_feature=7 27 13 1 20 13 1 27 13 6 10 5 14 6 20 5 25 15 5 28 7 0 24 27 2 18 27 27 25 25
split_gain=1243.39 117.105 98.0032 94.42 123.155 152.049 104.936 87.5551 75.5542 54.5751 44.2515 42.1808 40.3627 39.5739 36.2939 33.8329 33.1482 31.9801 32.2964 31.6041 40.227 38.0458 52.4243 47.1563 31.0521 29.6576 28.3953 59.9104 27.7786 49.0687
threshold=1.0000000180025095e-35 1.0000000180025095e-35 -1.0000000180025095e-35 1.0000000180025095e-35 1.0000000180025095e-35 -1.0000000180025095e-35 -1.0000000180025095e-35 -1.0000000180025095e-35 -1.0000000180025095e-35 1.0000000180025095e-35 -1.0000000180025095e-35 -1.0000000180025095e-35 -1.0000000180025095e-35 -1.0000000180025095e-35 1.0000000180025095e-35 1.0000000180025095e-35 1.0000000180025095e-35 -1.0000000180025095e-35 1.0000000180025095e-35 1.0000000180025095e-35 -1.0000000180025095e-35 -1.0000000180025095e-35 -1.0000000180025095e-35 -1.0000000180025095e-35 -1.0000000180025095e-35 1.0000000180025095e-35 1.0000000180025095e-35 -1.0000000180025095e-35 1.0000000180025095e-35 -1.0000000180025095e-35
decision_type=2 2 2 2 2 2 2 2 2 2 2 2 2 2 2 2 2 2 2 2 2 2 2 2 2 2 2 2 2 2
left_child=3 7 -3 4 6 -6 10 16 9 26 -1 -9 17 -8 -11 -12 -2 18 -4 21 -21 -7 -23 -24 -15 -25 27 -5 29 -14
right_child=1 2 12 8 5 19 13 11 -10 14 15 -13 28 24 -16 -17 -18 -19 -20 20 -22 22 23 25 -26 -27 -28 -29 -30 -31
leaf_value=-0.07579915822335638 -0.0020629191595001074 -0.01524685249310331 0.016349412745256548 -0.077347746890356756 -0.072391026644314918 -0.082123847482211493 -0.04015860796302699 0.011336404138101394 0.026428914693517078 -0.00065326382216720797 0.042282450711034231 -0.072390912942366811 0.078113710191540217 -0.055021501692743939 -0.088566294051081892 0.007738714596855021 0.053882140835580905 0.073260718003551939 0.072759407700295986 0.022615709670655383 -0.088122587553114806 -0.086793956835759231 -0.072557791152224299 0.03603991062160386 0.0081990896623200821 -0.07590504778903473 -0.054043307365876196 0.11370369889037134 0.073452632096425483 0.023826227518903863
leaf_count=277 398 545 1254 164 4009 287 2343 211 325 776 1185 732 1077 301 157 1422 875 687 399 853 114 206 191 581 1225 75 9192 76 4686 918
internal_value=0 0.64272 0.761338 -0.377701 -0.238825 -0.548139 -0.0355746 0.116359 -0.586842 -0.64693 0.254296 -0.562986 0.826314 -0.340702 -0.173848 0.309263 0.487923 0.560135 0.398127 -0.144287 0.167276 -0.381988 -0.179882 0.0730067 -0.0448528 0.347865 -0.741842 0.170077 0.933525 0.692289
internal_count=35541 11782 9566 23759 13069 6316 6753 2216 10690 10365 2884 943 9021 3869 933 2607 1273 2340 1653 2307 967 1340 1053 847 1526 656 9432 240 6681 1995
shrinkage=0.07


Tree=21
num_leaves=31
num_cat=0
split_feature=7 20 13 21 1 17 13 17 6 14 6 20 15 13 25 25 25 1 15 5 24 27 26 26 5 23 13 12 6 23
split_gain=1111.02 107.136 110.538 92.724 86.4865 113.77 116.56 108.155 71.3597 64.1685 62.119 61.8827 48.5426 50.0736 45.3678 43.1165 59.7885 42.5686 45.4177 39.8827 39.7679 39.5871 42.1943 37.7543 33.0573 32.7966 31.2305 30.5526 33.8636 30.4789
threshold=1.0000000180025095e-35 1.0000000180025095e-35 -1.0000000180025095e-35 -1.0000000180025095e-35 1.0000000180025095e-35 1.0000000180025095e-35 -1.0000000180025095e-35 -1.0000000180025095e-35 1.0000000180025095e-35 -1.0000000180025095e-35 1.0000000180025095e-35 1.0000000180025095e-35 -1.0000000180025095e-35 1.0000000180025095e-35 1.0000000180025095e-35 1.0000000180025095e-35 -1.0000000180025095e-35 -1.0000000180025095e-35 -1.0000000180025095e-35 1.0000000180025095e-35 1.0000000180025095e-35 -1.0000000180025095e-35 -1.0000000180025095e-35 1.0000000180025095e-35 1.0000000180025095e-35 1.0000000180025095e-35 -1.0000000180025095e-35 1.0000000180025095e-35 -1.0000000180025095e-35 1.0000000180025095e-35
decision_type=2 2 2 2 2 2 2 2 2 2 2 2 2 2 2 2 2 2 2 2 2 2 2 2 2 2 2 2 2 2
left_child=4 3 24 -2 5 7 -7 10 23 12 17 26 13 19 -5 16 -11 18 -1 25 -18 -8 -23 -6 -3 27 -9 28 -4 -26
right_child=1 2 9 14 8 6 21 11 -10 15 -12 -13 -14 -15 -16 -17 20 -19 -20 -21 -22 22 -24 -25 29 -27 -28 -29 -30 -31
leaf_value=-0.060036916911268313 0.064932552598772134 -0.049388346996956635 -0.14803884755993887 0.011405589336660305 -0.0080133900405723463 -0.070897493774398426 -0.063082163945117231 0.088802376689656473 -0.0039384382847200347 0.075894582470232549 0.049715811991424871 0.35571221308221079 0.072828252687150277 0.062576320716091732 -0.070956283137888598 0.073600166838405937 -0.02988440816187635 -0.027625304144232855 0.0083694613124866788 0.084670037067674467 0.038452731161718108 0.012559558960033254 -0.04255660525393138 -0.051998143857847456 -0.060828368281004859 0.019035485774092965 0.012179300412587045 -0.0016289016688892364 -0.025857593729317362 0.059987949353545851
leaf_count=546 417 449 85 288 779 3654 435 340 1033 1133 448 24 746 600 728 5017 277 3782 1832 151 693 1238 533 8878 62 573 237 283 125 155
internal_value=0 0.617623 0.702166 -0.074717 -0.361011 -0.227267 -0.548379 -0.0427057 -0.565048 0.774462 -0.136876 0.899538 0.456314 0.269567 -0.542998 0.909361 0.617516 -0.203059 0.0111738 0.0331867 0.24552 -0.188767 -0.0467511 -0.67701 -0.235242 -0.101098 0.759509 -0.493889 -1.09869 0.367573
internal_count=35541 11782 10349 1433 23759 13069 5860 7209 10690 9683 6608 601 2563 1817 1016 7120 2103 6160 2378 1217 970 2206 1771 9657 666 1066 577 493 210 217
shrinkage=0.07


Tree=22
num_leaves=31
num_cat=0
split_feature=7 27 13 1 17 13 17 27 13 6 6 20 6 25 5 25 1 15 27 18 20 13 5 13 17 8 25 6 15 27
split_gain=993.553 100.322 82.1858 78.7007 102.494 111.532 95.7848 69.1059 67.1721 54.4092 48.01 42.4213 40.0601 49.8652 39.6228 38.9624 37.7329 40.7542 36.0004 38.1139 33.4756 31.3808 31.2313 29.7138 29.0884 26.9443 25.1858 56.3974 26.0136 25.0149
threshold=1.0000000180025095e-35 1.0000000180025095e-35 -1.0000000180025095e-35 1.0000000180025095e-35 1.0000000180025095e-35 -1.0000000180025095e-35 -1.0000000180025095e-35 -1.0000000180025095e-35 -1.0000000180025095e-35 1.0000000180025095e-35 1.0000000180025095e-35 1.0000000180025095e-35 1.0000000180025095e-35 1.0000000180025095e-35 -1.0000000180025095e-35 -1.0000000180025095e-35 -1.0000000180025095e-35 -1.0000000180025095e-35 -1.0000000180025095e-35 1.0000000180025095e-35 1.0000000180025095e-35 1.0000000180025095e-35 1.0000000180025095e-35 -1.0000000180025095e-35 1.0000000180025095e-35 -1.0000000180025095e-35 1.0000000180025095e-35 1.0000000180025095e-35 -1.0000000180025095e-35 1.0000000180025095e-35
decision_type=2 2 2 2 2 2 2 2 2 2 2 2 2 2 2 2 2 2 2 2 2 2 2 2 2 2 2 2 2 2
left_child=3 7 -3 4 6 -6 9 21 10 16 29 23 13 15 -9 -4 17 -1 -7 26 -12 24 -17 -8 -2 -10 27 -20 -28 -5
right_child=1 2 12 8 5 18 11 14 25 -11 20 -13 -14 -15 -16 22 -18 -19 19 -21 -22 -23 -24 -25 -26 -27 28 -29 -30 -31
leaf_value=-0.058161166924800001 0.061636173250463264 -0.013681512051808155 0.061861717535662317 0.012766641589943355 -0.069823007950869154 -0.061008558822513867 0.087137472239443958 0.011844503736224338 0.044147116673635065 0.046777144891623268 -0.00033246681555552189 0.28586675532996508 0.066165861436814216 0.054162672141761806 -0.070976134716277339 -0.02014891364489621 -0.026170243518822963 0.0077874412884247545 -0.056064394285318904 -0.075656235914713904 -0.086755071261872096 0.069250530514010644 0.079679091743767166 0.011378525364356554 -0.007793924808321538 -0.068730040232378956 0.014041529345523919 0.038422431173004847 0.11474222237365254 -0.05093017162532687
leaf_count=546 261 545 404 240 3654 435 340 211 262 448 776 24 4730 3255 732 533 3782 1832 460 200 157 480 99 237 532 63 801 246 64 9192
internal_value=0 0.595416 0.709844 -0.344007 -0.215662 -0.525645 -0.0402184 0.0963418 -0.541962 -0.128901 -0.602406 0.857415 0.77293 0.596222 -0.525204 0.168884 -0.191238 0.0102412 -0.177213 -0.0435738 -0.159465 0.433706 -0.107038 0.728877 0.165268 0.365293 0.0662649 -0.264463 0.321481 -0.697757
internal_count=35541 11782 9566 23759 13069 5860 7209 2216 10690 6608 10365 601 9021 4291 943 1036 6160 2378 2206 1771 933 1273 632 577 793 325 1571 706 865 9432
shrinkage=0.07


Tree=23
num_leaves=31
num_cat=0
split_feature=7 27 13 1 20 13 5 6 27 1 10 15 5 13 25 25 25 26 21 6 5 14 13 12 28 0 24 27 7 24
split_gain=886.819 90.9483 75.0053 71.874 94.45 136.289 77.2657 62.2704 61.4305 46.8734 43.9235 38.8044 58.6259 43.5677 38.4307 37.7718 50.9235 33.2465 32.9662 31.4616 31.2252 34.0428 29.2854 27.7065 27.4237 35.2565 47.2801 36.6902 34.8889 26.7558
threshold=1.0000000180025095e-35 1.0000000180025095e-35 -1.0000000180025095e-35 1.0000000180025095e-35 1.0000000180025095e-35 -1.0000000180025095e-35 1.0000000180025095e-35 1.0000000180025095e-35 -1.0000000180025095e-35 -1.0000000180025095e-35 -1.0000000180025095e-35 -1.0000000180025095e-35 1.0000000180025095e-35 1.0000000180025095e-35 1.0000000180025095e-35 1.0000000180025095e-35 -1.0000000180025095e-35 1.0000000180025095e-35 1.0000000180025095e-35 -1.0000000180025095e-35 -1.0000000180025095e-35 -1.0000000180025095e-35 1.0000000180025095e-35 1.0000000180025095e-35 1.0000000180025095e-35 -1.0000000180025095e-35 -1.0000000180025095e-35 -1.0000000180025095e-35 -1.0000000180025095e-35 -1.0000000180025095e-35
decision_type=2 2 2 2 2 2 2 2 2 2 2 2 2 2 2 2 2 2 2 2 2 2 2 2 2 2 2 2 2 2
left_child=3 8 -3 4 6 -6 10 17 22 -8 -1 12 13 15 -10 16 -4 29 -18 -11 21 23 -2 -17 25 -7 -27 -28 -26 -5
right_child=1 2 11 7 5 24 9 -9 14 19 -12 -13 -14 -15 -16 20 18 -19 -20 -21 -22 -23 -24 -25 28 26 27 -29 -30 -31
leaf_value=-0.074263072483385817 0.010847776253628488 -0.012797991325599006 0.065830146734790193 -0.052526898121774329 -0.070276116532340893 -0.07936955090768931 0.0057291793253498669 -0.003250557387477268 0.014717563729149924 -0.044368085092854823 0.033032178637552187 0.072360056224347782 0.072204152191068141 0.064102303901842878 -0.068508064032715366 -0.032566033643269807 0.04533662250088645 -0.048852090527807937 -0.029101267792379194 -0.0072361888990691431 -0.09836867425306689 0.065694586480782524 0.067522074359342418 0.04182791553140313 0.021935769639110377 -0.083339111761058099 -0.067059993903533316 0.022638632597372026 -0.085742538816855091 0.019748832635321161
leaf_count=271 793 545 370 373 4009 287 1428 1033 251 2061 1717 2640 2092 1273 692 192 170 8878 667 1276 33 1231 480 353 853 206 191 656 114 406
internal_value=0 0.572162 0.683372 -0.328008 -0.204668 -0.490221 -0.0259191 -0.520582 0.0917753 -0.192957 0.379536 0.745549 0.639326 0.479516 -0.503652 0.329237 0.0328512 -0.631939 -0.205636 -0.402862 0.58507 0.64418 0.412191 0.193877 -0.116741 -0.344426 -0.149055 0.09077 0.173589 -0.100179
internal_count=35541 11782 9566 23759 13069 6316 6753 10690 2216 4765 1988 9021 6381 4289 943 3016 1207 9657 837 3337 1809 1776 1273 545 2307 1340 1053 847 967 779
shrinkage=0.07


Tree=24
num_leaves=31
num_cat=0
split_feature=7 6 3 3 6 13 20 1 20 25 3 14 11 25 3 5 28 21 8 13 6 1 5 15 13 5 13 25 25 24
split_gain=792.165 87.9854 68.7031 124.384 76.2965 72.476 68.4438 65.6591 65.3797 63.5352 82.5099 59.646 57.9199 87.8013 54.2841 53.0944 49.3639 46.9106 43.3361 42.2784 39.6654 37.2975 34.5928 32.6593 30.6436 28.0755 27.2375 24.6532 31.9197 24.6046
threshold=1.0000000180025095e-35 1.0000000180025095e-35 1.0000000180025095e-35 -1.0000000180025095e-35 1.0000000180025095e-35 -1.0000000180025095e-35 1.0000000180025095e-35 1.0000000180025095e-35 1.0000000180025095e-35 1.0000000180025095e-35 1.0000000180025095e-35 -1.0000000180025095e-35 1.0000000180025095e-35 1.0000000180025095e-35 -1.0000000180025095e-35 1.0000000180025095e-35 1.0000000180025095e-35 -1.0000000180025095e-35 1.0000000180025095e-35 -1.0000000180025095e-35 -1.0000000180025095e-35 -1.0000000180025095e-35 -1.0000000180025095e-35 -1.0000000180025095e-35 -1.0000000180025095e-35 1.0000000180025095e-35 -1.0000000180025095e-35 1.0000000180025095e-35 -1.0000000180025095e-35 1.0000000180025095e-35
decision_type=2 2 2 2 2 2 2 2 2 2 2 2 2 2 2 2 2 2 2 2 2 2 2 2 2 2 2 2 2 2
left_child=2 9 3 15 7 8 17 12 -5 24 14 16 21 -14 -11 -1 23 -3 -6 -15 -7 -4 -22 -12 -2 -26 -9 28 -8 -30
right_child=1 6 4 5 18 20 27 26 -10 10 11 -13 13 19 -16 -17 -18 -19 -20 -21 22 -23 -24 -25 25 -27 -28 -29 29 -31
leaf_value=-0.049417370244096155 -0.053723222845481748 0.064497517025611212 0.0028548494353577165 0.090544273631937705 0.013834904924755861 0.058281724990673967 0.071709328425076102 -0.047839797875036102 0.37534871697030109 0.031656492171023308 -0.047458463922431408 0.066203736346614403 -0.071110707678637669 -0.074734798474844696 -0.069471668304786613 0.098539270819336638 0.05459406972515872 -0.05019381021514855 -0.04255876067399729 0.0091064688814664826 0.031716631589583738 -0.02433165647532207 -0.12442459083350337 0.068586858568085329 -0.0029148968113100449 0.064852937055525875 0.010897496239824616 0.073228580744878008 -0.016255180435036955 0.042903996447651423
leaf_count=1190 325 213 2275 428 1727 151 1093 9201 29 380 328 2513 2621 525 483 62 464 385 643 827 54 3780 72 117 1055 248 174 3239 254 685
internal_value=0 0.550399 -0.312484 0.172362 -0.360044 0.871856 0.791829 -0.431316 1.54409 0.328943 0.522582 0.701191 -0.296777 -0.606423 -0.281929 -0.49803 0.176542 -0.110432 0.0338679 -0.0973056 0.03334 -0.163374 -0.819732 -0.367198 -0.0490225 0.0953902 -0.64537 0.887157 0.663092 0.36074
internal_count=35541 11782 23759 1986 21773 734 5869 19403 457 5913 4285 3422 10028 3973 863 1252 909 598 2370 1352 277 6055 126 445 1628 1303 9375 5271 2032 939
shrinkage=0.07


Tree=25
num_leaves=31
num_cat=0
split_feature=7 6 20 1 20 13 5 25 3 13 14 3 28 21 1 10 6 20 6 15 13 5 5 25 25 26 8 5 2 27
split_gain=706.607 81.5465 62.094 60.8617 78.1062 130.025 63.6251 57.6552 74.1528 56.0625 55.805 48.8051 43.8028 42.0937 37.6298 37.3228 36.4594 29.7861 29.1188 28.5672 27.2857 25.2385 25.0507 24.6138 30.1932 23.5258 23.3303 23.131 22.5413 26.0815
threshold=1.0000000180025095e-35 1.0000000180025095e-35 1.0000000180025095e-35 1.0000000180025095e-35 1.0000000180025095e-35 -1.0000000180025095e-35 1.0000000180025095e-35 1.0000000180025095e-35 1.0000000180025095e-35 -1.0000000180025095e-35 -1.0000000180025095e-35 -1.0000000180025095e-35 1.0000000180025095e-35 -1.0000000180025095e-35 -1.0000000180025095e-35 -1.0000000180025095e-35 1.0000000180025095e-35 1.0000000180025095e-35 -1.0000000180025095e-35 -1.0000000180025095e-35 -1.0000000180025095e-35 1.0000000180025095e-35 -1.0000000180025095e-35 1.0000000180025095e-35 -1.0000000180025095e-35 1.0000000180025095e-35 -1.0000000180025095e-35 1.0000000180025095e-35 1.0000000180025095e-35 1.0000000180025095e-35
decision_type=2 2 2 2 2 2 2 2 2 2 2 2 2 2 2 2 2 2 2 2 2 2 2 2 2 2 2 2 2 2
left_child=3 7 13 4 6 -6 15 20 11 16 12 -9 19 -3 -8 -1 -5 27 -16 -10 -2 -22 28 24 -4 -24 -11 -18 -7 -30
right_child=1 2 23 9 5 22 14 8 10 26 -12 -13 -14 -15 18 -17 17 -19 -20 -21 21 -23 25 -25 -26 -27 -28 -29 29 -31
leaf_value=-0.073375293280677267 -0.051451156266163423 0.062813740621456823 0.069674474965320712 -0.044269818472869905 -0.069087289816927688 0.062731875508552359 0.0050313376477855911 0.029986659865935194 -0.043514977530035706 0.041485713285143049 0.064384161450400448 -0.067230115732198753 0.052434859009821533 -0.04784713544228128 -0.04167660280654336 0.030548708920802834 0.068521311865216691 -0.084889017687398857 -0.0053871537986328764 0.066936049210097076 -0.0027096726293359074 0.062483595457660877 0.090643151865083149 0.071651546569851537 0.023816944293241004 -0.03333361691453867 -0.065241481418050917 -0.010296084212318719 -0.060586733803211466 -0.007521960030492607
leaf_count=271 325 213 1093 9432 4009 86 1428 380 328 262 2513 483 464 385 2061 1717 86 157 1276 117 1055 248 113 3239 939 45 63 690 409 1654
internal_value=0 0.529071 0.766878 -0.297146 -0.182497 -0.450617 -0.0196316 0.314036 0.503014 -0.480282 0.67558 -0.2699 0.167058 -0.105343 -0.172476 0.353485 -0.540515 -0.156845 -0.365786 -0.339512 -0.045975 0.0891228 -0.0909293 0.85984 0.634127 0.729239 0.349043 -0.0150343 -0.167065 -0.224941
internal_count=35541 11782 5869 23759 13069 6316 6753 5913 4285 10690 3422 863 909 598 4765 1988 10365 933 3337 445 1628 1303 2307 5271 2032 158 325 776 2149 2063
shrinkage=0.07


Tree=26
num_leaves=31
num_cat=0
split_feature=7 6 3 3 13 6 20 1 13 11 25 18 27 20 25 21 13 8 6 17 25 13 1 5 13 25 25 13 18 1
split_gain=630.292 75.4621 58.3082 104.197 68.6224 66.0868 56.2837 56.2249 52.5211 49.3344 82.2308 46.2028 41.6237 40.4569 38.0936 37.7599 37.2648 36.0683 34.6575 33.7382 31.9637 31.7671 29.3806 29.1516 26.337 24.6135 28.5428 22.8686 44.6201 36.8191
threshold=1.0000000180025095e-35 1.0000000180025095e-35 1.0000000180025095e-35 -1.0000000180025095e-35 -1.0000000180025095e-35 1.0000000180025095e-35 1.0000000180025095e-35 1.0000000180025095e-35 -1.0000000180025095e-35 1.0000000180025095e-35 1.0000000180025095e-35 -1.0000000180025095e-35 1.0000000180025095e-35 1.0000000180025095e-35 1.0000000180025095e-35 -1.0000000180025095e-35 -1.0000000180025095e-35 1.0000000180025095e-35 -1.0000000180025095e-35 -1.0000000180025095e-35 -1.0000000180025095e-35 -1.0000000180025095e-35 -1.0000000180025095e-35 -1.0000000180025095e-35 1.0000000180025095e-35 1.0000000180025095e-35 -1.0000000180025095e-35 -1.0000000180025095e-35 -1.0000000180025095e-35 1.0000000180025095e-35
decision_type=2 2 2 2 2 2 2 2 2 2 2 2 2 2 2 2 2 2 2 2 2 2 2 2 2 2 2 2 2 2
left_child=2 8 3 11 13 7 15 9 -2 22 -11 -1 19 -5 20 -3 -12 27 -6 -10 -14 -13 -4 -20 -22 26 -8 28 29 -7
right_child=1 6 5 4 18 17 25 -9 12 10 16 21 14 -15 -16 -17 -18 -19 23 -21 24 -23 -24 -25 -26 -27 -28 -29 -30 -31
leaf_value=0.10676260685252929 -0.031636774721260766 0.061162391634578248 0.0022327867920198495 0.088841488636508037 0.054197274004321137 0.064638391826183306 0.067648210031154218 -0.042208020012528498 0.072573464932629381 -0.069261206777241596 -0.073844880374270519 -0.076571466142395822 0.05730645634258108 0.29802022933438332 0.047326351104383997 -0.045579454623089537 0.0090083827669952231 -0.039271694220649571 0.028297467060790511 -0.020267272383699967 -0.019700379143092171 -0.0019033008437979509 -0.0220980403204535 -0.11521583000002607 0.074289092747748822 0.070113784199999279 0.022420753977459303 0.049133857724143401 -0.078150729836278146 -0.0012723087285023511
leaf_count=52 516 213 2275 428 151 283 1093 9375 174 2621 525 923 404 29 3255 385 827 643 54 932 507 277 3780 72 125 3239 939 335 342 767
internal_value=0 0.508205 -0.282784 0.174584 0.822664 -0.327399 0.74216 -0.396217 0.29962 -0.271229 -0.567907 -0.460707 0.384453 1.49817 0.503373 -0.100384 -0.0751631 0.040802 0.00401407 -0.0853523 0.127139 -0.645371 -0.148792 -0.78482 -0.116937 0.832732 0.605461 0.188287 0.0506154 0.199172
internal_count=35541 11782 23759 1986 734 21773 5869 19403 5913 10028 3973 1252 5397 457 4291 598 1352 2370 277 1106 1036 1200 6055 126 632 5271 2032 1727 1392 1050
shrinkage=0.07


Tree=27
num_leaves=31
num_cat=0
split_feature=7 6 3 3 13 6 1 20 25 3 14 11 25 5 3 28 13 21 8 6 1 15 24 0 28 28 5 25 24 20
split_gain=561.461 69.9618 51.4161 93.0255 62.7904 58.8234 52.1943 50.993 47.1085 65.1622 54.1009 45.2345 77.1962 42.2687 41.5873 38.9438 34.4272 33.86 31.7818 30.1866 25.9543 25.1934 24.6532 27.6244 40.3586 26.1231 24.6016 24.5631 28.6714 24.512
threshold=1.0000000180025095e-35 1.0000000180025095e-35 1.0000000180025095e-35 -1.0000000180025095e-35 -1.0000000180025095e-35 1.0000000180025095e-35 1.0000000180025095e-35 1.0000000180025095e-35 1.0000000180025095e-35 1.0000000180025095e-35 -1.0000000180025095e-35 1.0000000180025095e-35 1.0000000180025095e-35 1.0000000180025095e-35 -1.0000000180025095e-35 1.0000000180025095e-35 -1.0000000180025095e-35 -1.0000000180025095e-35 1.0000000180025095e-35 -1.0000000180025095e-35 -1.0000000180025095e-35 -1.0000000180025095e-35 -1.0000000180025095e-35 -1.0000000180025095e-35 1.0000000180025095e-35 1.0000000180025095e-35 -1.0000000180025095e-35 1.0000000180025095e-35 1.0000000180025095e-35 1.0000000180025095e-35
decision_type=2 2 2 2 2 2 2 2 2 2 2 2 2 2 2 2 2 2 2 2 2 2 2 2 2 2 2 2 2 2
left_child=2 8 3 13 29 6 11 17 22 14 15 20 -13 -1 -10 21 -14 -3 -7 -6 -4 -11 25 24 -24 -2 -21 28 -9 -5
right_child=1 7 5 4 19 18 -8 27 9 10 -12 12 16 -15 -16 -17 -18 -19 -20 26 -22 -23 23 -25 -26 -27 -28 -29 -30 -31
leaf_value=-0.045235830786987744 -0.07998420808291716 0.059537523573952991 0.0020765558502749944 0.087378677000317762 0.051711290452784359 0.0123599112390249 -0.040605439290580046 0.0035339268632867175 0.026722798782752438 -0.042613974707632341 0.061843038309971295 -0.067836724972293566 -0.073421508909755892 0.089666825956342289 -0.065071228698395892 0.048715240797129328 0.0083525962190115974 -0.04338895217103874 -0.037350208969875655 0.026603462687302678 -0.020869827544890061 0.064515945842674449 -0.10051760035754646 0.024264792967578597 0.023948951860721532 0.00085732094100250721 -0.10493439891708421 0.068606663593826597 0.054384053354149517 0.24297257044257073
leaf_count=1190 200 213 2275 428 151 1727 9375 518 380 328 2513 2621 525 62 483 464 827 385 643 54 3780 117 135 893 164 236 72 3239 1514 29
internal_value=0 0.48745 -0.268903 0.167312 0.786 -0.311009 -0.37689 0.717843 0.285237 0.463268 0.631087 -0.256269 -0.545693 -0.445197 -0.277083 0.124329 -0.0707292 -0.0955496 0.0380784 0.00448966 -0.139498 -0.351335 -0.0413274 0.136764 -0.502124 -0.525578 -0.722301 0.806046 0.577585 1.45052
internal_count=35541 11782 23759 1986 734 21773 19403 5869 5913 4285 3422 10028 3973 1252 863 909 1352 598 2370 277 6055 445 1628 1192 299 436 126 5271 2032 457
shrinkage=0.07


Tree=28
num_leaves=31
num_cat=0
split_feature=7 6 20 1 20 13 13 5 13 27 25 20 5 6 6 2 21 10 17 25 1 28 0 24 12 7 14 25 13 24
split_gain=499.537 64.7657 46.1905 45.828 58.4625 120.277 51.116 49.3496 45.4453 34.6896 31.4853 31.1744 110.998 31.2642 31.151 39.8061 30.3504 29.8825 28.8238 28.2533 26.7369 24.563 33.0865 43.6336 31.0791 30.2975 28.6154 24.4111 28.6894 29.795
threshold=1.0000000180025095e-35 1.0000000180025095e-35 1.0000000180025095e-35 1.0000000180025095e-35 1.0000000180025095e-35 -1.0000000180025095e-35 -1.0000000180025095e-35 1.0000000180025095e-35 -1.0000000180025095e-35 1.0000000180025095e-35 1.0000000180025095e-35 1.0000000180025095e-35 1.0000000180025095e-35 1.0000000180025095e-35 -1.0000000180025095e-35 1.0000000180025095e-35 -1.0000000180025095e-35 -1.0000000180025095e-35 -1.0000000180025095e-35 -1.0000000180025095e-35 -1.0000000180025095e-35 1.0000000180025095e-35 -1.0000000180025095e-35 -1.0000000180025095e-35 1.0000000180025095e-35 -1.0000000180025095e-35 1.0000000180025095e-35 1.0000000180025095e-35 1.0000000180025095e-35 1.0000000180025095e-35
decision_type=2 2 2 2 2 2 2 2 2 2 2 2 2 2 2 2 2 2 2 2 2 2 2 2 2 2 2 2 2 2
left_child=3 8 16 4 7 -6 11 17 -2 18 19 12 -5 -14 20 -16 -3 -1 -10 -11 -9 22 -7 -24 26 -23 -25 28 29 -4
right_child=1 2 27 6 5 21 -8 14 9 10 -12 -13 13 -15 15 -17 -18 -19 -20 -21 -22 25 23 24 -26 -27 -28 -29 -30 -31
leaf_value=-0.072229539784006661 -0.030332220712399237 0.057934174222682461 -0.015827887279394205 0.043227229500367434 -0.067597922473463912 -0.075765147479897349 0.026056664913590519 -0.0055474252030497696 0.070288692777419517 0.055347558836732494 0.044125237765210545 -0.075064830763097487 -0.045399687256966283 -0.010334822559484471 -0.048204270734052528 0.021118722555002786 -0.041274050085515039 0.027714712236539495 -0.018680099441225475 -0.0072964642263134861 -0.038245840608700198 0.024214321304480622 -0.079782149136047559 -0.046658602095949415 0.037018755992415088 -0.082926933490283045 0.10299149379152128 0.067122759527233414 0.077138382696955221 0.042640536048867209
leaf_count=271 516 213 370 696 4009 287 325 1074 174 404 3255 943 8036 690 323 1307 385 1717 932 632 2061 853 206 352 465 114 30 3239 679 983
internal_value=0 0.467365 0.694027 -0.25502 -0.153974 -0.396786 -0.421293 -0.0126059 0.271522 0.353236 0.465452 -0.483424 -0.427019 -0.548113 -0.148395 0.121285 -0.0908383 0.324028 -0.0807743 0.122714 -0.297652 -0.0584869 -0.281664 -0.0904463 0.140446 0.220419 -0.408314 0.779908 0.550783 0.353375
internal_count=35541 11782 5869 23759 13069 6316 10690 6753 5913 5397 4291 10365 9422 8726 4765 1630 598 1988 1106 1036 3135 2307 1340 1053 847 967 382 5271 2032 1353
shrinkage=0.07


Tree=29
num_leaves=31
num_cat=0
split_feature=7 6 3 3 13 6 1 20 13 11 25 18 15 5 5 13 13 28 0 24 21 8 6 25 13 24 25 13 20 1
split_gain=444.713 60.2542 43.8395 76.4624 59.3862 50.0143 43.8749 41.9132 40.1441 39.1003 70.6636 37.5348 31.3003 39.7207 38.2553 30.7651 29.8066 27.8007 107.071 70.2267 27.1922 27.1048 26.3515 23.95 27.92 26.5379 22.6991 24.2521 22.5539 21.5638
threshold=1.0000000180025095e-35 1.0000000180025095e-35 1.0000000180025095e-35 -1.0000000180025095e-35 -1.0000000180025095e-35 1.0000000180025095e-35 1.0000000180025095e-35 1.0000000180025095e-35 -1.0000000180025095e-35 1.0000000180025095e-35 1.0000000180025095e-35 -1.0000000180025095e-35 -1.0000000180025095e-35 1.0000000180025095e-35 -1.0000000180025095e-35 -1.0000000180025095e-35 -1.0000000180025095e-35 1.0000000180025095e-35 -1.0000000180025095e-35 -1.0000000180025095e-35 -1.0000000180025095e-35 1.0000000180025095e-35 -1.0000000180025095e-35 1.0000000180025095e-35 1.0000000180025095e-35 1.0000000180025095e-35 1.0000000180025095e-35 -1.0000000180025095e-35 1.0000000180025095e-35 -1.0000000180025095e-35
decision_type=2 2 2 2 2 2 2 2 2 2 2 2 2 2 2 2 2 2 2 2 2 2 2 2 2 2 2 2 2 2
left_child=2 8 3 11 -5 6 9 20 -2 29 -11 -1 13 14 17 -13 -12 18 -10 -20 -3 -7 -6 24 25 -9 -8 -28 -14 -4
right_child=1 7 5 4 22 21 26 23 12 10 16 15 28 -15 -16 -17 -18 -19 19 -21 -22 -23 -24 -25 -26 -27 27 -29 -30 -31
leaf_value=0.099881636584925756 -0.028614353432055286 0.056348262706915613 0.00198009975934005 0.099117790254319452 0.048069388299196013 0.011774958680753636 -0.040358643331852517 -0.014633315351360768 -0.124857683684118 -0.065993594207287176 -0.072664032016361235 -0.075387969311391773 -0.026636219473245085 0.051869203294914262 -0.078480588363850259 0 0.0075568556729080517 0.036238195549619566 -0.071556601279910356 0.030689264079146534 -0.039233384301369217 -0.034880209038230484 -0.048481758062207531 0.065655688459352754 0.076277591118260907 0.040612264835388517 -0.072666370021917628 0.05585273450927377 0.064186373981494363 -0.019088893503381152
leaf_count=52 516 213 2275 457 151 1727 9135 370 177 2621 525 923 148 1135 279 277 827 1045 210 1308 385 643 126 3239 679 983 138 102 1095 3780
internal_value=0 0.447689 -0.242402 0.170975 0.741824 -0.281737 -0.344462 0.671397 0.257834 -0.233599 -0.511966 -0.40297 0.335657 0.230731 0.0904277 -0.582289 -0.059787 0.163006 -0.0237431 0.198611 -0.0862482 0.0414342 -0.000972907 0.755171 0.526456 0.333518 -0.538146 0.245483 0.772238 -0.125713
internal_count=35541 11782 23759 1986 734 21773 19403 5869 5913 10028 3973 1252 5397 4154 3019 1200 1352 2740 1695 1518 598 2370 277 5271 2032 1353 9375 240 1243 6055
shrinkage=0.07


Tree=30
num_leaves=31
num_cat=0
split_feature=7 15 5 5 14 2 25 3 3 13 6 1 7 13 0 28 5 1 6 0 13 22 8 8 5 25 22 1 2 11
split_gain=395.361 57.6665 63.9264 44.8435 54.7539 47.486 42.8329 38.6273 68.621 55.9046 44.6934 40.7491 37.0278 34.2868 34.0692 43.3938 33.8078 29.6963 24.2728 30.8922 27.3271 33.328 23.776 23.4298 22.9573 27.7881 21.3789 23.035 21.3706 21.1851
threshold=1.0000000180025095e-35 -1.0000000180025095e-35 1.0000000180025095e-35 -1.0000000180025095e-35 -1.0000000180025095e-35 1.0000000180025095e-35 1.0000000180025095e-35 1.0000000180025095e-35 -1.0000000180025095e-35 -1.0000000180025095e-35 1.0000000180025095e-35 1.0000000180025095e-35 -1.0000000180025095e-35 1.0000000180025095e-35 1.0000000180025095e-35 1.0000000180025095e-35 1.0000000180025095e-35 1.0000000180025095e-35 -1.0000000180025095e-35 -1.0000000180025095e-35 -1.0000000180025095e-35 1.0000000180025095e-35 1.0000000180025095e-35 -1.0000000180025095e-35 -1.0000000180025095e-35 1.0000000180025095e-35 1.0000000180025095e-35 -1.0000000180025095e-35 1.0000000180025095e-35 -1.0000000180025095e-35
decision_type=2 2 2 2 2 2 2 2 2 2 2 2 2 2 2 2 2 2 2 2 2 2 2 2 2 2 2 2 2 2
left_child=7 2 3 4 5 -2 -6 8 16 -10 11 12 18 -7 15 29 -1 -3 26 -20 21 -21 -12 -4 -11 -26 27 -9 -19 -8
right_child=1 17 23 -5 6 13 14 10 9 24 22 -13 -14 -15 -16 -17 -18 28 19 20 -22 -23 -24 -25 25 -27 -28 -29 -30 -31
leaf_value=-0.040780181508528274 0.055403237192338813 0.077337487923029649 0.071990348837820892 -0.060645636483948273 0.0073985247214846837 -0.030789532439616504 0.062237229807089955 -0.0018133837371196498 0.097695586530341397 0.041100178297811103 0.010930842475119813 -0.036230631132512313 -0.069446019411078946 0.042488902878119232 0.067154312735778404 0.048003840874823768 0.082835862619974374 -0.0083802190133725283 -0.044011467905055217 0.0042223146043267254 0.04336747730772398 -0.074367468571340814 -0.03310735642170104 0.030964322678543221 0.027904719015696716 -0.11738241280028995 -0.044005715209372846 -0.029928603017912551 0.049184082358340146 -0.10820876283199862
leaf_count=1190 282 1655 1344 473 1300 1182 43 1430 457 157 1727 9375 914 302 1781 415 62 377 696 1936 429 577 643 1330 58 62 1717 2329 1170 128
internal_value=0 0.428686 0.315371 0.167665 0.223397 -0.107056 0.445385 -0.229914 0.164817 0.714233 -0.266879 -0.327202 -0.220334 -0.285287 0.730864 0.103899 -0.38842 0.798059 -0.182728 -0.0114079 0.0879616 -0.0305028 0.03846 0.724387 -0 -0.708528 -0.298043 -0.208619 0.492677 -1.04647
internal_count=35541 11782 8580 5906 5433 1766 3667 23759 1986 734 21773 19403 10028 1484 2367 586 1252 3202 9114 3638 2942 2513 2370 2674 277 120 5476 3759 1547 171
shrinkage=0.07


Tree=31
num_leaves=31
num_cat=0
split_feature=13 20 5 27 14 20 1 17 18 5 5 6 25 15 8 6 5 24 25 28 0 16 21 6 16 24 7 22 1 21
split_gain=364.893 117.982 154.484 84.5253 73.236 63.4054 62.7112 58.5193 51.2739 49.8165 35.2067 29.586 61.1027 28.029 26.0516 24.7324 22.3477 21.9013 23.9278 21.2877 32.1238 22.8227 23.1851 20.873 20.8336 18.7771 18.0281 20.9711 17.2535 16.5439
threshold=-1.0000000180025095e-35 1.0000000180025095e-35 1.0000000180025095e-35 1.0000000180025095e-35 -1.0000000180025095e-35 -1.0000000180025095e-35 -1.0000000180025095e-35 -1.0000000180025095e-35 -1.0000000180025095e-35 -1.0000000180025095e-35 1.0000000180025095e-35 1.0000000180025095e-35 1.0000000180025095e-35 -1.0000000180025095e-35 -1.0000000180025095e-35 -1.0000000180025095e-35 -1.0000000180025095e-35 -1.0000000180025095e-35 1.0000000180025095e-35 1.0000000180025095e-35 -1.0000000180025095e-35 1.0000000180025095e-35 -1.0000000180025095e-35 1.0000000180025095e-35 1.0000000180025095e-35 1.0000000180025095e-35 1.0000000180025095e-35 1.0000000180025095e-35 1.0000000180025095e-35 -1.0000000180025095e-35
decision_type=2 2 2 2 2 2 2 2 2 2 2 2 2 2 2 2 2 2 2 2 2 2 2 2 2 2 2 2 2 2
left_child=1 2 5 7 10 8 15 -2 -1 -3 13 12 16 19 -14 -4 26 -11 -19 20 -5 22 -21 28 -22 -26 27 -6 -8 -9
right_child=3 9 6 4 11 -7 23 29 -10 17 -12 -13 14 -15 -16 -17 -18 18 -20 21 24 -23 -24 -25 25 -27 -28 -29 -30 -31
leaf_value=0.024645570024454954 0.062067645353798322 -0.065719632917768611 -0.0055078005999948205 -0.078811423555028348 0.083050318814359703 0.094461017988529794 -0.021983154859569334 0.039692299401624241 -0.09119871157242096 -0.055683583953237505 0.059706182420014603 0.056871486720989059 0.060771012116786573 0.043037878354934757 0.019114195238212152 0.039049419414871313 0.064383175489182709 -0.0068384815071625337 0.10057644375502485 0.035003057874971988 0.048587741443729494 0.030689842867342606 -0.096792534903104563 -0.0069980929377295364 -0.072377637518791144 -0.006104123045264539 2.2331775351520059e-05 -0.076377342458006772 -0.041354866830933923 -0.023095708299668186
leaf_count=1650 423 5143 1076 269 30 499 3258 176 286 169 557 3936 2051 660 896 344 167 228 78 76 169 715 89 769 148 757 529 168 8039 2186
internal_value=0 -0.272673 -0.165991 0.338707 0.449816 0.436757 -0.306596 -0.0954093 0.232441 -0.775136 0.129449 0.614723 0.448395 0.0256146 0.680058 0.0656632 -0.076107 0.00540906 0.420605 -0.0877846 -0.281879 0.227183 -0.596538 -0.420151 -0.102429 -0.250315 -0.225406 -0.811623 -0.478406 -0.26394
internal_count=35541 21539 15921 14002 11217 2435 13486 2785 1936 5618 3440 7777 3841 2883 2947 1420 894 475 306 2223 1343 880 165 12066 1074 905 727 198 11297 2362
shrinkage=0.07


Tree=32
num_leaves=31
num_cat=0
split_feature=13 20 5 27 14 20 1 17 5 18 5 24 28 0 28 15 21 23 5 6 6 24 25 12 6 25 16 1 6 25
split_gain=323.14 109.671 135.958 75.251 66.4384 60.2398 56.2195 52.0226 47.1982 46.1294 32.0711 27.8085 61.821 29.3574 34.5454 36.8923 25.4807 23.664 23.4406 21.5428 19.254 19.2231 21.099 18.5971 17.5629 21.0065 17.1925 16.3928 15.957 15.8758
threshold=-1.0000000180025095e-35 1.0000000180025095e-35 1.0000000180025095e-35 1.0000000180025095e-35 -1.0000000180025095e-35 -1.0000000180025095e-35 -1.0000000180025095e-35 -1.0000000180025095e-35 -1.0000000180025095e-35 -1.0000000180025095e-35 1.0000000180025095e-35 1.0000000180025095e-35 1.0000000180025095e-35 1.0000000180025095e-35 1.0000000180025095e-35 -1.0000000180025095e-35 1.0000000180025095e-35 1.0000000180025095e-35 1.0000000180025095e-35 -1.0000000180025095e-35 1.0000000180025095e-35 -1.0000000180025095e-35 1.0000000180025095e-35 1.0000000180025095e-35 -1.0000000180025095e-35 1.0000000180025095e-35 1.0000000180025095e-35 1.0000000180025095e-35 -1.0000000180025095e-35 1.0000000180025095e-35
decision_type=2 2 2 2 2 2 2 2 2 2 2 2 2 2 2 2 2 2 2 2 2 2 2 2 2 2 2 2 2 2
left_child=1 2 5 7 10 9 19 -2 -3 -1 16 12 29 14 15 18 23 24 26 -4 27 -10 -23 -5 -18 -26 -13 28 -8 -6
right_child=3 8 6 4 11 -7 20 -9 21 -11 -12 13 -14 -15 -16 -17 17 -19 -20 -21 -22 22 -24 -25 25 -27 -28 -29 -30 -31
leaf_value=0.022843582335931714 0.059897724946420906 -0.064639230672158904 -0.0051235676075214245 -0.013919327974360131 -0.061770223120210639 0.093121481508333367 -0.033578383719500185 -0.017225609337556479 -0.052822881107072048 -0.08995441914537014 0.058005621919249975 0 0.046424291743551102 0.05809358948322918 0.04568870188045155 0.066320559206836591 -0.054608174626601717 0.013935964302532985 0.06484813878553497 0.036564070045129925 -0.0065183257677691236 -0.0063780360507857793 0.094964739948363699 0.064505842236361896 -0.034841966332942335 0.021717830429855894 -0.10662615026178789 -0.039887365541222242 -0.0046408549398341443 -0
leaf_count=1650 423 5143 1076 123 211 499 2061 2362 169 286 557 62 1345 4314 1053 161 370 1099 77 344 769 228 78 384 470 437 162 8039 1197 392
internal_value=0 -0.259658 -0.157192 0.32147 0.428017 0.410866 -0.290706 -0.0890561 -0.756769 0.216027 0.121902 0.58801 0.293955 0.695603 0.354475 -0.265769 0.0239013 -0.0858544 -0.775831 0.0610968 -0.400369 0.00400201 0.393289 0.580997 -0.32662 -0.114707 -1.09971 -0.457702 -0.296839 -0.399596
internal_count=35541 21539 15921 14002 11217 2435 13486 2785 5618 1936 3440 7777 1948 5829 1515 462 2883 2376 301 1420 12066 475 306 507 1277 907 224 11297 3258 603
shrinkage=0.07


Tree=33
num_leaves=31
num_cat=0
split_feature=7 15 5 5 14 2 25 27 27 13 13 20 5 1 0 28 1 26 6 13 12 8 12 6 25 21 2 6 5 25
split_gain=295.679 50.1559 51.2698 38.1751 40.0549 39.804 38.441 31.8897 61.9964 57.225 45.0944 129.021 70.5535 50.6146 31.7361 35.4321 30.1455 29.2339 30.6027 27.9015 26.94 23.0429 20.8721 29.4044 20.3909 20.328 19.5327 19.2505 18.826 18.3346
threshold=1.0000000180025095e-35 -1.0000000180025095e-35 1.0000000180025095e-35 -1.0000000180025095e-35 -1.0000000180025095e-35 1.0000000180025095e-35 1.0000000180025095e-35 -1.0000000180025095e-35 1.0000000180025095e-35 -1.0000000180025095e-35 -1.0000000180025095e-35 1.0000000180025095e-35 1.0000000180025095e-35 -1.0000000180025095e-35 1.0000000180025095e-35 1.0000000180025095e-35 1.0000000180025095e-35 1.0000000180025095e-35 1.0000000180025095e-35 1.0000000180025095e-35 1.0000000180025095e-35 -1.0000000180025095e-35 -1.0000000180025095e-35 -1.0000000180025095e-35 -1.0000000180025095e-35 1.0000000180025095e-35 1.0000000180025095e-35 -1.0000000180025095e-35 1.0000000180025095e-35 1.0000000180025095e-35
decision_type=2 2 2 2 2 2 2 2 2 2 2 2 2 2 2 2 2 2 2 2 2 2 2 2 2 2 2 2 2 2
left_child=7 2 3 4 5 -2 24 28 9 -9 11 12 -10 27 15 -8 -3 -12 29 -7 -20 -4 -23 -24 -6 -26 -18 -14 -1 -19
right_child=1 16 21 -5 6 19 14 8 10 -11 17 -13 13 -15 -16 -17 26 18 20 -21 -22 22 23 -25 25 -27 -28 -29 -30 -31
leaf_value=-0.060070998924588295 0.052606103340237576 0.075816523790856627 0.069294363589853886 -0.05862579173937825 0.043134005882980407 -0.027036230858840708 -0.067567568137013506 0.096290947847650396 0.019022674527351718 -0.014739537224474346 0.018939023321948096 -0.072613101649619094 -0.0047225743912972544 -0.026644828226807513 0.064871129202883931 0.044377137259881745 -0.011090143603118685 -0.081783543755281712 -0.082208794953337591 0.040292377962154791 0.064290311787527935 0.058047772649049714 -0.086815016186558527 0.023364282044646495 0.032637307275250438 -0.024819909723818673 0.045449576223710868 0.034859640748564118 0.023891876963127084 -0.012330776075181899
leaf_count=1363 282 1655 1344 473 529 1182 171 426 1939 205 1534 4037 1073 12062 1781 415 377 290 44 302 125 639 111 580 231 540 1170 342 116 203
internal_value=0 0.385772 0.278434 0.144871 0.197463 -0.0841601 0.397648 -0.202557 -0.177153 0.633655 -0.209233 -0.272936 -0.184013 -0.274593 0.688223 0.066103 0.750356 0.0977823 -0.332022 -0.247749 0.436781 0.664806 0.380015 0.0349374 0.0754716 -0.113136 0.433843 0.0589106 -0.709507 -0.685464
internal_count=35541 11782 8580 5906 5433 1766 3667 23759 22280 631 21649 19453 15416 13477 2367 586 3202 2196 662 1484 169 2674 1330 691 1300 771 1547 1415 1479 493
shrinkage=0.07


Tree=34
num_leaves=31
num_cat=0
split_feature=7 6 20 0 0 13 28 13 6 1 25 25 3 14 28 3 25 25 13 8 1 15 13 6 24 0 28 21 7 26
split_gain=262.291 47.8884 33.6518 29.8377 67.5896 45.8257 35.7767 34.4785 31.9476 31.401 39.3444 25.9302 50.9992 42.8776 26.2839 25.412 22.8492 27.8022 20.2696 19.9151 19.5809 19.5709 31.8211 24.3106 19.3326 19.6767 25.1931 18.7969 18.1272 17.5941
threshold=1.0000000180025095e-35 1.0000000180025095e-35 1.0000000180025095e-35 -1.0000000180025095e-35 1.0000000180025095e-35 -1.0000000180025095e-35 1.0000000180025095e-35 -1.0000000180025095e-35 1.0000000180025095e-35 1.0000000180025095e-35 1.0000000180025095e-35 1.0000000180025095e-35 1.0000000180025095e-35 -1.0000000180025095e-35 1.0000000180025095e-35 -1.0000000180025095e-35 1.0000000180025095e-35 -1.0000000180025095e-35 1.0000000180025095e-35 1.0000000180025095e-35 1.0000000180025095e-35 -1.0000000180025095e-35 -1.0000000180025095e-35 -1.0000000180025095e-35 -1.0000000180025095e-35 -1.0000000180025095e-35 1.0000000180025095e-35 -1.0000000180025095e-35 -1.0000000180025095e-35 1.0000000180025095e-35
decision_type=2 2 2 2 2 2 2 2 2 2 2 2 2 2 2 2 2 2 2 2 2 2 2 2 2 2 2 2 2 2
left_child=3 11 27 5 7 -1 -7 -5 9 21 -11 24 15 14 20 -13 17 -4 -19 -10 -14 22 -6 -24 -2 26 -26 -3 29 -8
right_child=1 2 16 4 8 6 28 -9 19 10 -12 12 13 -15 -16 -17 -18 18 -20 -21 -22 -23 23 -25 25 -27 -28 -29 -30 -31
leaf_value=-0.074118654809367288 -0.034533116416936863 0.049447100135592136 0.059667638116281826 0.089356386000238347 -0.060819810182313749 -0.063674381299433744 0.046792639531959855 0.0063070596630046489 0.012851589387518837 -0.033557537450461847 0.053023688640407997 0.015334493333424399 -0.038754212738800087 0.054354275067906604 0.040166926366360697 -0.061614380522827146 0.060857591571959482 -0.00069807297065800655 0.073307631601295331 -0.035655739871277577 0.063192611382138816 -0.0053436860002545813 -0.035031910159462616 0.016400986812295758 -0.084134403244123773 0.020521804818960016 0.017546952263073356 -0.036160450310500532 -0.087363626189337046 -0.017489922113171678
leaf_count=1981 436 213 1093 442 2226 319 276 272 1529 9004 153 380 342 2513 464 483 3239 708 231 458 103 5695 648 508 135 893 164 385 63 185
internal_value=0 0.368198 0.58575 -0.19178 -0.155742 -0.530779 -0.158266 0.645229 -0.193635 -0.247222 -0.426728 0.192721 0.343401 0.510602 0.0475419 -0.357029 0.66887 0.436852 0.147449 0.0850235 -0.338079 -0.148675 -0.385013 -0.137408 -0.0512896 0.111223 -0.448423 -0.127128 0.180878 0.317422
internal_count=35541 11782 5869 23759 20935 2824 843 714 20221 18234 9157 5913 4285 3422 909 863 5271 2032 939 1987 445 9077 3382 1156 1628 1192 299 598 524 461
shrinkage=0.07


Tree=35
num_leaves=31
num_cat=0
split_feature=13 20 20 15 5 5 1 18 5 5 21 14 20 28 16 0 24 25 7 6 20 25 7 24 6 21 25 25 8 24
split_gain=233.652 96.1678 106.014 62.596 79.7615 46.2071 43.3852 39.5918 39.5566 39.3962 37.1334 36.1025 30.4551 27.6058 45.5293 31.3874 26.3045 25.4483 32.2786 24.1963 23.8701 24.1743 37.0687 32.0716 24.8631 23.5954 19.136 18.088 18.0507 16.8134
threshold=-1.0000000180025095e-35 1.0000000180025095e-35 -1.0000000180025095e-35 -1.0000000180025095e-35 1.0000000180025095e-35 1.0000000180025095e-35 -1.0000000180025095e-35 -1.0000000180025095e-35 -1.0000000180025095e-35 -1.0000000180025095e-35 1.0000000180025095e-35 -1.0000000180025095e-35 1.0000000180025095e-35 1.0000000180025095e-35 1.0000000180025095e-35 -1.0000000180025095e-35 -1.0000000180025095e-35 1.0000000180025095e-35 -1.0000000180025095e-35 1.0000000180025095e-35 1.0000000180025095e-35 1.0000000180025095e-35 1.0000000180025095e-35 1.0000000180025095e-35 1.0000000180025095e-35 -1.0000000180025095e-35 -1.0000000180025095e-35 1.0000000180025095e-35 1.0000000180025095e-35 -1.0000000180025095e-35
decision_type=2 2 2 2 2 2 2 2 2 2 2 2 2 2 2 2 2 2 2 2 2 2 2 2 2 2 2 2 2 2
left_child=1 2 5 4 8 7 -7 -1 10 -3 -2 13 25 15 -15 -12 -17 19 28 -13 -5 22 24 -24 -22 -6 -21 -10 -19 -11
right_child=3 9 -4 20 12 6 -8 -9 27 29 11 17 -14 14 -16 16 -18 18 -20 26 21 -23 23 -25 -26 -27 -28 -29 -30 -31
leaf_value=0.020486278421476024 0.035575735057081975 -0.062596297746205079 0.09060304100734197 -0.00915600391670582 0.055524702318766307 0.0040415851983407799 -0.024566261713723184 -0.088789080596926126 0.00022729770546402002 -0.052414823558246483 -0.090550177841429769 -0.028323739471297734 0.057699691769520681 -0.11367575774958226 0.024173649621389914 -0.078688878955770342 -0.0071281482976678313 0.025868889385295628 0.048501666795893558 0.069967655976702112 -0.093237332653056962 0.067740284770094611 -0.017207382150266307 0.078567723373660553 0.036603118390219055 -0.083660367352125814 -8.0398477504805331e-06 -0.083335075516494661 -0.0314650203697023 0.024142341436063579
